{"learner":{"attributes":{"scikit_learn":"{\"_estimator_type\": \"regressor\"}"},"feature_names":["close_sma_5d_ratio","close_sma_20d_ratio","close_sma_60d_ratio","rsi_14","bb_bandwidth_20","volume_ratio_20"],"feature_types":["float","float","float","float","float","float"],"gradient_booster":{"model":{"cats":{"enc":[],"feature_segments":[],"sorted_idx":[]},"gbtree_model_param":{"num_parallel_tree":"1","num_trees":"300"},"iteration_indptr":[0,1,2,3,4,5,6,7,8,9,10,11,12,13,14,15,16,17,18,19,20,21,22,23,24,25,26,27,28,29,30,31,32,33,34,35,36,37,38,39,40,41,42,43,44,45,46,47,48,49,50,51,52,53,54,55,56,57,58,59,60,61,62,63,64,65,66,67,68,69,70,71,72,73,74,75,76,77,78,79,80,81,82,83,84,85,86,87,88,89,90,91,92,93,94,95,96,97,98,99,100,101,102,103,104,105,106,107,108,109,110,111,112,113,114,115,116,117,118,119,120,121,122,123,124,125,126,127,128,129,130,131,132,133,134,135,136,137,138,139,140,141,142,143,144,145,146,147,148,149,150,151,152,153,154,155,156,157,158,159,160,161,162,163,164,165,166,167,168,169,170,171,172,173,174,175,176,177,178,179,180,181,182,183,184,185,186,187,188,189,190,191,192,193,194,195,196,197,198,199,200,201,202,203,204,205,206,207,208,209,210,211,212,213,214,215,216,217,218,219,220,221,222,223,224,225,226,227,228,229,230,231,232,233,234,235,236,237,238,239,240,241,242,243,244,245,246,247,248,249,250,251,252,253,254,255,256,257,258,259,260,261,262,263,264,265,266,267,268,269,270,271,272,273,274,275,276,277,278,279,280,281,282,283,284,285,286,287,288,289,290,291,292,293,294,295,296,297,298,299,300],"tree_info":[0,0,0,0,0,0,0,0,0,0,0,0,0,0,0,0,0,0,0,0,0,0,0,0,0,0,0,0,0,0,0,0,0,0,0,0,0,0,0,0,0,0,0,0,0,0,0,0,0,0,0,0,0,0,0,0,0,0,0,0,0,0,0,0,0,0,0,0,0,0,0,0,0,0,0,0,0,0,0,0,0,0,0,0,0,0,0,0,0,0,0,0,0,0,0,0,0,0,0,0,0,0,0,0,0,0,0,0,0,0,0,0,0,0,0,0,0,0,0,0,0,0,0,0,0,0,0,0,0,0,0,0,0,0,0,0,0,0,0,0,0,0,0,0,0,0,0,0,0,0,0,0,0,0,0,0,0,0,0,0,0,0,0,0,0,0,0,0,0,0,0,0,0,0,0,0,0,0,0,0,0,0,0,0,0,0,0,0,0,0,0,0,0,0,0,0,0,0,0,0,0,0,0,0,0,0,0,0,0,0,0,0,0,0,0,0,0,0,0,0,0,0,0,0,0,0,0,0,0,0,0,0,0,0,0,0,0,0,0,0,0,0,0,0,0,0,0,0,0,0,0,0,0,0,0,0,0,0,0,0,0,0,0,0,0,0,0,0,0,0,0,0,0,0,0,0,0,0,0,0,0,0,0,0,0,0,0,0,0,0,0,0,0,0,0,0,0,0,0,0],"trees":[{"base_weights":[-3.276448E-5,-9.873209E-6,-5.416523E-3,-1.1104657E-4,1.0540716E-3,-0E0,-8.0044605E-3,4.386237E-3,-1.3069753E-4,5.910511E-3,8.3277904E-4,1.9682784E-4,-1.2249219E-3,-0E0,-8.178582E-3,-1.635218E-2,1.0895197E-2,-5.7049605E-5,-9.5272047E-4,6.6355695E-3,-0E0,3.240036E-3,6.069744E-4,-5.295088E-3,1.1725209E-4,-5.7162606E-4,-6.175916E-3,-9.964795E-4,8.080109E-4,7.286058E-4,-3.9702604E-4,1.2689567E-4,-5.6095864E-6,-3.7838108E-4,-3.5300935E-5,3.600712E-4,-0E0,-0E0,8.347081E-5,-1.0706112E-5,1.9538813E-4,1.5231009E-5,1.3175221E-4,-0E0,-3.6871468E-4,1.8474598E-4,-5.417065E-5,-0E0,-3.7275712E-4],"categories":[],"categories_nodes":[],"categories_segments":[],"categories_sizes":[],"default_left":[0,0,0,0,0,0,0,0,0,0,0,0,0,0,0,0,0,0,0,0,0,0,0,0,0,0,0,0,0,0,0,0,0,0,0,0,0,0,0,0,0,0,0,0,0,0,0,0,0],"id":0,"left_children":[1,3,5,7,9,11,13,15,17,19,21,-1,23,-1,25,27,29,31,33,35,37,39,41,43,45,-1,47,-1,-1,-1,-1,-1,-1,-1,-1,-1,-1,-1,-1,-1,-1,-1,-1,-1,-1,-1,-1,-1,-1],"loss_changes":[1.2686867E-2,1.1414127E-2,5.7249498E-3,8.210676E-3,9.205783E-3,5.874618E-4,4.7990307E-4,5.403163E-2,5.790325E-3,1.2642816E-3,4.4065304E-3,0E0,1.1903376E-3,0E0,1.9250438E-5,1.15158465E-2,2.2317924E-2,1.2553552E-2,1.2043047E-2,7.7652186E-4,5.0165105E-5,2.0262194E-3,4.672727E-3,5.838277E-4,5.873223E-4,0E0,1.2675417E-3,0E0,0E0,0E0,0E0,0E0,0E0,0E0,0E0,0E0,0E0,0E0,0E0,0E0,0E0,0E0,0E0,0E0,0E0,0E0,0E0,0E0,0E0],"parents":[2147483647,0,0,1,1,2,2,3,3,4,4,5,5,6,6,7,7,8,8,9,9,10,10,12,12,14,14,15,15,16,16,17,17,18,18,19,19,20,20,21,21,22,22,23,23,24,24,26,26],"right_children":[2,4,6,8,10,12,14,16,18,20,22,-1,24,-1,26,28,30,32,34,36,38,40,42,44,46,-1,48,-1,-1,-1,-1,-1,-1,-1,-1,-1,-1,-1,-1,-1,-1,-1,-1,-1,-1,-1,-1,-1,-1],"split_conditions":[1.2131557E0,1.106138E0,1.0788815E0,7.5522476E-1,9.963546E-1,9.314531E-3,3.2759594E1,2.606509E-2,3.3537243E-2,6.3467045E1,3.302546E1,1.9682784E-4,2.177195E-2,-0E0,2.177195E-2,9.4354886E-1,6.4372925E1,8.760774E-1,8.6549693E-1,1.1452739E0,9.9407107E-1,9.191292E-3,1.0827756E0,1.0566839E-2,6.3685345E1,-5.7162606E-4,5.4880123E1,-9.964795E-4,8.080109E-4,7.286058E-4,-3.9702604E-4,1.2689567E-4,-5.6095864E-6,-3.7838108E-4,-3.5300935E-5,3.600712E-4,-0E0,-0E0,8.347081E-5,-1.0706112E-5,1.9538813E-4,1.5231009E-5,1.3175221E-4,-0E0,-3.6871468E-4,1.8474598E-4,-5.417065E-5,-0E0,-3.7275712E-4],"split_indices":[1,1,0,1,0,4,3,4,4,3,3,0,4,0,4,0,3,1,0,1,0,4,0,4,3,0,3,0,0,0,0,0,0,0,0,0,0,0,0,0,0,0,0,0,0,0,0,0,0],"split_type":[0,0,0,0,0,0,0,0,0,0,0,0,0,0,0,0,0,0,0,0,0,0,0,0,0,0,0,0,0,0,0,0,0,0,0,0,0,0,0,0,0,0,0,0,0,0,0,0,0],"sum_hessian":[1.07346E5,1.06911E5,4.35E2,9.7714E4,9.197E3,1.47E2,2.88E2,4.02E2,9.7312E4,3.8E2,8.817E3,2.5E1,1.22E2,5E0,2.83E2,9.2E1,3.1E2,8.9423E4,7.889E3,3.3E2,5E1,7.17E2,8.1E3,4.8E1,7.4E1,8.7E1,1.96E2,8.6E1,6E0,2.64E2,4.6E1,1.822E3,8.7601E4,2.68E2,7.621E3,2.95E2,3.5E1,3.3E1,1.7E1,9.2E1,6.25E2,7.093E3,1.007E3,1.3E1,3.5E1,3.9E1,3.5E1,3.9E1,1.57E2],"tree_param":{"num_deleted":"0","num_feature":"6","num_nodes":"49","size_leaf_vector":"1"}},{"base_weights":[1.110922E-5,3.1394882E-3,-9.353199E-8,-1.3665796E-2,8.536279E-3,6.495441E-5,-7.53743E-4,-1.9544553E-2,1.3107709E-2,1.8689848E-2,4.7154413E-3,1.3046704E-2,5.6957397E-5,-4.3660705E-3,-2.9144602E-4,-1.3747514E-2,-1.7079497E-3,8.802296E-4,-0E0,1.3693521E-2,2.1147397E-3,9.3237925E-3,-1.19248815E-2,-1.2847439E-2,2.7294103E-2,8.527258E-4,-4.265797E-6,-7.2660167E-3,3.538481E-5,4.18957E-3,-5.549365E-4,-0E0,-9.931251E-4,-0E0,7.34284E-4,7.428853E-4,2.0268669E-4,-0E0,-7.757848E-4,-7.534184E-4,-0E0,1.7019404E-3,-5.9297105E-4,2.0682402E-5,1.0835001E-4,-8.397725E-6,1.8699593E-5,-6.556922E-5,-4.623043E-4,8.052758E-5,-2.7219063E-4,1.0960771E-3,4.720859E-5,-1.0046624E-3,-1.674886E-5],"categories":[],"categories_nodes":[],"categories_segments":[],"categories_sizes":[],"default_left":[0,0,0,0,0,0,0,0,0,0,0,0,0,0,0,0,0,0,0,0,0,0,0,0,0,0,0,0,0,0,0,0,0,0,0,0,0,0,0,0,0,0,0,0,0,0,0,0,0,0,0,0,0,0,0],"id":1,"left_children":[1,3,5,7,9,11,13,15,17,19,21,23,25,27,29,31,-1,-1,-1,33,-1,35,37,39,41,43,45,47,49,51,53,-1,-1,-1,-1,-1,-1,-1,-1,-1,-1,-1,-1,-1,-1,-1,-1,-1,-1,-1,-1,-1,-1,-1,-1],"loss_changes":[4.086971E-3,3.733266E-2,5.3263386E-3,1.6167177E-2,9.985786E-3,8.925176E-3,1.396651E-2,1.7715469E-3,8.319579E-4,3.2570455E-3,1.8332027E-2,2.1348305E-2,4.886106E-3,1.292569E-2,8.716121E-3,4.4907043E-3,0E0,0E0,0E0,1.1364492E-3,0E0,3.7064534E-3,2.0815274E-3,1.4576036E-4,1.2392541E-2,3.8711196E-3,5.6381943E-3,5.8885682E-3,2.7928895E-3,2.1056937E-2,2.9250108E-2,0E0,0E0,0E0,0E0,0E0,0E0,0E0,0E0,0E0,0E0,0E0,0E0,0E0,0E0,0E0,0E0,0E0,0E0,0E0,0E0,0E0,0E0,0E0,0E0],"parents":[2147483647,0,0,1,1,2,2,3,3,4,4,5,5,6,6,7,7,8,8,9,9,10,10,11,11,12,12,13,13,14,14,15,15,19,19,21,21,22,22,23,23,24,24,25,25,26,26,27,27,28,28,29,29,30,30],"right_children":[2,4,6,8,10,12,14,16,18,20,22,24,26,28,30,32,-1,-1,-1,34,-1,36,38,40,42,44,46,48,50,52,54,-1,-1,-1,-1,-1,-1,-1,-1,-1,-1,-1,-1,-1,-1,-1,-1,-1,-1,-1,-1,-1,-1,-1,-1],"split_conditions":[6.557827E-1,2.606509E-2,3.4256518E-2,9.4354886E-1,8.6549693E-1,8.6549693E-1,7.820626E-1,9.3439966E-1,9.974581E-1,9.495925E-2,6.972809E-2,7.3890096E-1,8.605899E-1,1.0024233E0,8.226794E-1,1.851653E-2,-1.7079497E-3,8.802296E-4,-0E0,5.910878E-1,2.1147397E-3,3.6734708E-2,8.899711E-1,7.0692325E-1,8.479607E-1,8.431346E-1,1.0159767E0,5.2293724E-1,7.6327133E-1,8.6549693E-1,8.6549693E-1,-0E0,-9.931251E-4,-0E0,7.34284E-4,7.428853E-4,2.0268669E-4,-0E0,-7.757848E-4,-7.534184E-4,-0E0,1.7019404E-3,-5.9297105E-4,2.0682402E-5,1.0835001E-4,-8.397725E-6,1.8699593E-5,-6.556922E-5,-4.623043E-4,8.052758E-5,-2.7219063E-4,1.0960771E-3,4.720859E-5,-1.0046624E-3,-1.674886E-5],"split_indices":[2,4,4,0,0,0,2,0,0,4,4,2,2,5,2,4,0,0,0,5,0,4,0,2,2,2,0,5,2,0,0,0,0,0,0,0,0,0,0,0,0,0,0,0,0,0,0,0,0,0,0,0,0,0,0],"split_type":[0,0,0,0,0,0,0,0,0,0,0,0,0,0,0,0,0,0,0,0,0,0,0,0,0,0,0,0,0,0,0,0,0,0,0,0,0,0,0,0,0,0,0,0,0,0,0,0,0,0,0,0,0,0,0],"sum_hessian":[1.07657E5,4.15E2,1.07242E5,9.6E1,3.19E2,9.86E4,8.642E3,8.2E1,1.4E1,7.9E1,2.4E2,5.2E1,9.8548E4,9.55E2,7.687E3,6.5E1,1.7E1,1E1,4E0,7E1,9E0,1.93E2,4.7E1,1.6E1,3.6E1,7.156E3,9.1392E4,5.89E2,3.66E2,4.05E2,7.282E3,2.3E1,4.2E1,4E0,6.6E1,8.4E1,1.09E2,1.1E1,3.6E1,1.2E1,4E0,3.3E1,3E0,5.422E3,1.734E3,6.3973E4,2.7419E4,1.6E2,4.29E2,2.99E2,6.7E1,5.7E1,3.48E2,7.5E1,7.207E3],"tree_param":{"num_deleted":"0","num_feature":"6","num_nodes":"55","size_leaf_vector":"1"}},{"base_weights":[-1.2985529E-5,-1.3174085E-4,4.2624105E-4,5.9276476E-4,-2.2646319E-4,1.8281536E-3,1.0154656E-4,8.149028E-4,-2.672891E-3,-2.4780774E-4,2.4554739E-3,1.1793016E-3,3.4562286E-3,-2.78201E-5,7.0800877E-4,4.2782072E-4,2.1250444E-3,5.34088E-3,-7.2822813E-3,-1.7657397E-4,-1.115092E-3,3.6440336E-3,-3.4862782E-3,7.2041835E-4,2.5893012E-3,3.7456176E-3,-6.1465017E-3,-1.4904911E-4,6.9939584E-4,1.3800203E-3,-2.170272E-3,-1.0379344E-5,7.3421914E-5,-5.5573957E-5,1.7063276E-4,6.0372E-4,-6.282734E-4,-9.629902E-5,-7.299019E-4,-6.7803167E-6,-5.783673E-5,-9.10858E-5,1.4479054E-5,-0E0,2.2755319E-4,-0E0,-2.4745002E-4,-3.2271525E-6,5.0094335E-5,-0E0,1.9242748E-4,7.50176E-5,2.3175182E-4,-0E0,-6.73147E-4,-1.6968014E-6,-7.063433E-5,8.415939E-5,-0E0,1.4316758E-4,3.420775E-5,1.064701E-4,-2.7424438E-4],"categories":[],"categories_nodes":[],"categories_segments":[],"categories_sizes":[],"default_left":[0,0,0,0,0,0,0,0,0,0,0,0,0,0,0,0,0,0,0,0,0,0,0,0,0,0,0,0,0,0,0,0,0,0,0,0,0,0,0,0,0,0,0,0,0,0,0,0,0,0,0,0,0,0,0,0,0,0,0,0,0,0,0],"id":2,"left_children":[1,3,5,7,9,11,13,15,17,19,21,23,25,27,29,31,33,35,37,39,41,43,45,47,49,51,53,55,57,59,61,-1,-1,-1,-1,-1,-1,-1,-1,-1,-1,-1,-1,-1,-1,-1,-1,-1,-1,-1,-1,-1,-1,-1,-1,-1,-1,-1,-1,-1,-1,-1,-1],"loss_changes":[5.5662794E-3,5.771122E-3,1.0118338E-2,6.8261754E-3,4.071138E-3,3.9712787E-3,1.5157085E-3,4.347044E-3,2.191599E-2,4.467681E-3,3.94796E-3,1.6405894E-3,2.9870318E-3,1.2739003E-3,6.461694E-3,4.799206E-3,8.614518E-3,2.5061173E-2,1.3249114E-2,2.6360753E-3,5.6536025E-3,1.2672963E-3,3.8691645E-4,6.1433786E-4,2.3165247E-3,1.6360953E-3,1.9933044E-3,1.751813E-3,1.3357399E-3,2.5014482E-3,9.069309E-3,0E0,0E0,0E0,0E0,0E0,0E0,0E0,0E0,0E0,0E0,0E0,0E0,0E0,0E0,0E0,0E0,0E0,0E0,0E0,0E0,0E0,0E0,0E0,0E0,0E0,0E0,0E0,0E0,0E0,0E0,0E0,0E0],"parents":[2147483647,0,0,1,1,2,2,3,3,4,4,5,5,6,6,7,7,8,8,9,9,10,10,11,11,12,12,13,13,14,14,15,15,16,16,17,17,18,18,19,19,20,20,21,21,22,22,23,23,24,24,25,25,26,26,27,27,28,28,29,29,30,30],"right_children":[2,4,6,8,10,12,14,16,18,20,22,24,26,28,30,32,34,36,38,40,42,44,46,48,50,52,54,56,58,60,62,-1,-1,-1,-1,-1,-1,-1,-1,-1,-1,-1,-1,-1,-1,-1,-1,-1,-1,-1,-1,-1,-1,-1,-1,-1,-1,-1,-1,-1,-1,-1,-1],"split_conditions":[1.1337011E0,8.605899E-1,1.1602926E0,6.3280985E-2,8.674285E1,1.5976701E-2,2.344299E-2,8.431346E-1,7.0692325E-1,3.1589586E-2,1.0958768E0,5.9497864E1,7.704214E-2,1.2912769E0,1.3160532E0,2.344299E-2,3.8749092E1,6.3022232E1,3.709708E1,1.1141851E0,4.7977805E-2,2.101179E-2,1.8880263E-2,3.8355606E1,8.459939E-3,1.142658E0,4.2946194E1,1.2669305E0,1.3288095E0,1.1884178E0,5.5205544E1,-1.0379344E-5,7.3421914E-5,-5.5573957E-5,1.7063276E-4,6.0372E-4,-6.282734E-4,-9.629902E-5,-7.299019E-4,-6.7803167E-6,-5.783673E-5,-9.10858E-5,1.4479054E-5,-0E0,2.2755319E-4,-0E0,-2.4745002E-4,-3.2271525E-6,5.0094335E-5,-0E0,1.9242748E-4,7.50176E-5,2.3175182E-4,-0E0,-6.73147E-4,-1.6968014E-6,-7.063433E-5,8.415939E-5,-0E0,1.4316758E-4,3.420775E-5,1.064701E-4,-2.7424438E-4],"split_indices":[2,2,2,4,3,4,4,2,2,4,2,3,4,2,2,4,3,3,3,2,4,4,4,3,4,2,3,2,2,2,3,0,0,0,0,0,0,0,0,0,0,0,0,0,0,0,0,0,0,0,0,0,0,0,0,0,0,0,0,0,0,0,0],"split_type":[0,0,0,0,0,0,0,0,0,0,0,0,0,0,0,0,0,0,0,0,0,0,0,0,0,0,0,0,0,0,0,0,0,0,0,0,0,0,0,0,0,0,0,0,0,0,0,0,0,0,0,0,0,0,0,0,0,0,0,0,0,0,0],"sum_hessian":[1.07277E5,8.4625E4,2.2652E4,9.662E3,7.4963E4,4.201E3,1.8451E4,9.076E3,5.86E2,7.4409E4,5.54E2,3.049E3,1.152E3,1.5072E4,3.379E3,7.066E3,2.01E3,2.06E2,3.8E2,6.8869E4,5.54E3,4.76E2,7.8E1,2.355E3,6.94E2,1.129E3,2.3E1,1.3037E4,2.035E3,2.768E3,6.11E2,4.328E3,2.738E3,5.5E2,1.46E3,1.54E2,5.2E1,2.28E2,1.52E2,6.6205E4,2.664E3,3.733E3,1.807E3,1.1E2,3.66E2,2.4E1,5.4E1,5.28E2,1.827E3,2.24E2,4.7E2,3.53E2,7.76E2,8E0,1.5E1,1.2022E4,1.015E3,8.22E2,1.213E3,8.37E2,1.931E3,2.53E2,3.58E2],"tree_param":{"num_deleted":"0","num_feature":"6","num_nodes":"63","size_leaf_vector":"1"}},{"base_weights":[-4.4955445E-6,1.5901009E-5,-5.410963E-3,-7.030173E-5,1.4273635E-3,-2.0384751E-3,-1.235997E-2,-3.3668337E-5,-2.6091307E-3,-5.455187E-3,1.6042617E-3,-2.8395912E-4,4.4386619E-4,-0E0,-6.291344E-4,1.968316E-3,-6.0654067E-5,-2.286699E-3,-1.4686105E-2,-0E0,-1.23085175E-2,2.397798E-3,-0E0,2.7191944E-3,-0E0,8.051792E-6,9.640081E-4,4.0761475E-4,-3.414756E-6,-4.792878E-5,-1.5389825E-4,-0E0,-1.3931285E-3,8.593518E-5,-0E0,-6.4903405E-4,-0E0,2.54237E-5,2.1453686E-4,-3.241107E-5,1.1453044E-4,1.865401E-4,-0E0,-8.137647E-5,-0E0],"categories":[],"categories_nodes":[],"categories_segments":[],"categories_sizes":[],"default_left":[0,0,0,0,0,0,0,0,0,0,0,0,0,0,0,0,0,0,0,0,0,0,0,0,0,0,0,0,0,0,0,0,0,0,0,0,0,0,0,0,0,0,0,0,0],"id":3,"left_children":[1,3,5,7,9,11,13,15,17,19,21,-1,23,-1,-1,25,27,29,31,33,35,37,39,41,43,-1,-1,-1,-1,-1,-1,-1,-1,-1,-1,-1,-1,-1,-1,-1,-1,-1,-1,-1,-1],"loss_changes":[1.2380408E-2,1.3149349E-2,8.424717E-3,9.104491E-3,7.200229E-3,3.1921081E-3,2.3608841E-4,5.1762518E-3,3.6973748E-3,6.530684E-3,7.523002E-3,0E0,3.8993632E-4,0E0,0E0,3.7850298E-2,5.346599E-3,1.0299743E-3,7.1584024E-3,1.417892E-4,3.644023E-4,1.3934268E-2,3.1987736E-3,2.327284E-4,1.324426E-4,0E0,0E0,0E0,0E0,0E0,0E0,0E0,0E0,0E0,0E0,0E0,0E0,0E0,0E0,0E0,0E0,0E0,0E0,0E0,0E0],"parents":[2147483647,0,0,1,1,2,2,3,3,4,4,5,5,6,6,7,7,8,8,9,9,10,10,12,12,15,15,16,16,17,17,18,18,19,19,20,20,21,21,22,22,23,23,24,24],"right_children":[2,4,6,8,10,12,14,16,18,20,22,-1,24,-1,-1,26,28,30,32,34,36,38,40,42,44,-1,-1,-1,-1,-1,-1,-1,-1,-1,-1,-1,-1,-1,-1,-1,-1,-1,-1,-1,-1],"split_conditions":[1.2131557E0,1.1292665E0,1.3428992E0,1.2602758E0,1.0930331E0,1.2912769E0,3.6116722E-1,8.25762E-1,1.3753513E0,9.831054E-1,1.1803851E0,-2.8395912E-4,1.3160532E0,-0E0,-6.291344E-4,7.726589E-1,6.910923E-1,1.0561706E0,1.118092E0,3.0533021E-2,1.0338862E0,1.29199205E-2,2.5711106E-2,5.494068E-2,1.3288095E0,8.051792E-6,9.640081E-4,4.0761475E-4,-3.414756E-6,-4.792878E-5,-1.5389825E-4,-0E0,-1.3931285E-3,8.593518E-5,-0E0,-6.4903405E-4,-0E0,2.54237E-5,2.1453686E-4,-3.241107E-5,1.1453044E-4,1.865401E-4,-0E0,-8.137647E-5,-0E0],"split_indices":[1,1,2,2,2,2,5,1,2,2,1,0,2,0,0,2,2,1,1,4,2,4,4,4,2,0,0,0,0,0,0,0,0,0,0,0,0,0,0,0,0,0,0,0,0],"split_type":[0,0,0,0,0,0,0,0,0,0,0,0,0,0,0,0,0,0,0,0,0,0,0,0,0,0,0,0,0,0,0,0,0,0,0,0,0,0,0,0,0,0,0,0,0],"sum_hessian":[1.07376E5,1.06955E5,4.21E2,1.00733E5,6.222E3,2.94E2,1.27E2,9.934E4,1.393E3,1.41E2,6.081E3,1.35E2,1.59E2,3E0,1.24E2,1.271E3,9.8069E4,1.366E3,2.7E1,7.1E1,7E1,4.03E3,2.051E3,5.6E1,1.03E2,1.157E3,1.14E2,7.8E1,9.7991E4,5.58E2,8.08E2,1.1E1,1.6E1,4.7E1,2.4E1,6.5E1,5E0,2.044E3,1.986E3,1.568E3,4.83E2,4.6E1,1E1,4.9E1,5.4E1],"tree_param":{"num_deleted":"0","num_feature":"6","num_nodes":"45","size_leaf_vector":"1"}},{"base_weights":[1.6980055E-5,3.9046296E-5,-5.085649E-3,-5.4617056E-5,1.0474649E-3,-0E0,-7.456318E-3,8.97808E-4,-1.16955984E-4,4.81688E-3,7.988724E-4,8.963998E-4,-5.8103376E-3,-0E0,-7.6156915E-3,1.1539869E-3,-6.7066513E-3,-1.0083561E-3,-4.0955263E-5,5.3238776E-3,-1.1269611E-3,1.0340218E-3,-1.283395E-3,3.1925435E-3,-0E0,-0E0,-1.0550239E-2,-3.872802E-4,-0E0,1.5217777E-5,1.589213E-4,-3.5230906E-4,-0E0,-6.189649E-5,1.7864506E-4,-5.465968E-5,6.0332815E-7,2.7427945E-4,-0E0,-6.537942E-5,-0E0,3.4020557E-6,8.119156E-5,-2.664057E-4,-0E0,-0E0,1.9924334E-4,-0E0,-6.976232E-5,-8.605784E-4,-0E0],"categories":[],"categories_nodes":[],"categories_segments":[],"categories_sizes":[],"default_left":[0,0,0,0,0,0,0,0,0,0,0,0,0,0,0,0,0,0,0,0,0,0,0,0,0,0,0,0,0,0,0,0,0,0,0,0,0,0,0,0,0,0,0,0,0,0,0,0,0,0,0],"id":4,"left_children":[1,3,5,7,9,11,13,15,17,19,21,23,25,-1,27,29,31,33,35,37,39,41,43,45,47,-1,49,-1,-1,-1,-1,-1,-1,-1,-1,-1,-1,-1,-1,-1,-1,-1,-1,-1,-1,-1,-1,-1,-1,-1,-1],"loss_changes":[1.1589796E-2,1.0202954E-2,4.9433447E-3,5.7281204E-3,8.038557E-3,1.0433117E-3,3.026221E-4,1.0963805E-2,6.119762E-3,2.0620283E-3,4.206915E-3,5.0331675E-4,7.243326E-4,0E0,2.1476857E-4,9.506511E-3,4.4331886E-4,7.25403E-3,4.8374683E-3,6.311489E-4,7.1835275E-6,4.278697E-3,4.1053537E-3,1.2909377E-4,9.733562E-5,0E0,1.2927671E-3,0E0,0E0,0E0,0E0,0E0,0E0,0E0,0E0,0E0,0E0,0E0,0E0,0E0,0E0,0E0,0E0,0E0,0E0,0E0,0E0,0E0,0E0,0E0,0E0],"parents":[2147483647,0,0,1,1,2,2,3,3,4,4,5,5,6,6,7,7,8,8,9,9,10,10,11,11,12,12,14,14,15,15,16,16,17,17,18,18,19,19,20,20,21,21,22,22,23,23,24,24,26,26],"right_children":[2,4,6,8,10,12,14,16,18,20,22,24,26,-1,28,30,32,34,36,38,40,42,44,46,48,-1,50,-1,-1,-1,-1,-1,-1,-1,-1,-1,-1,-1,-1,-1,-1,-1,-1,-1,-1,-1,-1,-1,-1,-1,-1],"split_conditions":[1.2131557E0,1.106138E0,1.0788815E0,8.972217E-1,9.987557E-1,1.2896284E0,3.2759594E1,1.0290757E0,9.6042866E-1,1.1501921E0,1.1955665E0,1.072698E0,6.0226112E1,-0E0,3.4130237E0,1.1457387E0,7.998653E1,1.015102E0,2.5811262E1,7.43036E1,1.8628049E0,1.1355149E0,1.0550009E0,4.87889E1,5.360637E-1,-0E0,7.530828E1,-3.872802E-4,-0E0,1.5217777E-5,1.589213E-4,-3.5230906E-4,-0E0,-6.189649E-5,1.7864506E-4,-5.465968E-5,6.0332815E-7,2.7427945E-4,-0E0,-6.537942E-5,-0E0,3.4020557E-6,8.119156E-5,-2.664057E-4,-0E0,-0E0,1.9924334E-4,-0E0,-6.976232E-5,-8.605784E-4,-0E0],"split_indices":[1,1,0,1,0,5,3,0,0,1,1,0,3,0,5,5,3,1,3,3,5,1,0,3,5,0,3,0,0,0,0,0,0,0,0,0,0,0,0,0,0,0,0,0,0,0,0,0,0,0,0],"split_type":[0,0,0,0,0,0,0,0,0,0,0,0,0,0,0,0,0,0,0,0,0,0,0,0,0,0,0,0,0,0,0,0,0,0,0,0,0,0,0,0,0,0,0,0,0,0,0,0,0,0,0],"sum_hessian":[1.07412E5,1.0697E5,4.42E2,9.7789E4,9.181E3,1.48E2,2.94E2,5.908E3,9.1881E4,5.42E2,8.639E3,1.21E2,2.7E1,7E0,2.87E2,5.729E3,1.79E2,7.114E3,8.4767E4,5.15E2,2.7E1,7.806E3,8.33E2,5.8E1,6.3E1,1.3E1,1.4E1,2.81E2,6E0,4.071E3,1.658E3,1.71E2,8E0,6.796E3,3.18E2,4.156E3,8.0611E4,5.06E2,9E0,2.4E1,3E0,3.024E3,4.782E3,1.92E2,6.41E2,1.3E1,4.5E1,1.4E1,4.9E1,9E0,5E0],"tree_param":{"num_deleted":"0","num_feature":"6","num_nodes":"51","size_leaf_vector":"1"}},{"base_weights":[1.1719876E-5,-9.194527E-5,3.946639E-4,2.82327E-3,-1.0760661E-4,1.4914531E-3,1.1851209E-4,-1.1521015E-2,7.579574E-3,-1.2553051E-4,2.1865293E-3,2.8042126E-4,1.9666317E-3,-1.0964568E-4,8.4235484E-4,-1.8875316E-2,-2.895108E-3,1.2438376E-2,-7.060243E-3,-5.6005723E-5,-9.2709943E-4,2.9537138E-3,-2.2491277E-3,1.1126035E-3,-4.4211367E-4,7.5251557E-4,2.5279578E-3,-2.0192532E-4,4.4445894E-4,1.280428E-3,-1.9128893E-3,-0E0,-1.0122412E-3,-3.640695E-4,-0E0,1.1637254E-3,4.6919376E-4,-0E0,-7.722906E-4,1.8680204E-5,-1.0654549E-5,-1.7373297E-4,-2.5194127E-5,-0E0,1.8614135E-4,-0E0,-1.674594E-4,-0E0,1.1551917E-4,-7.759748E-5,4.7984624E-5,5.932459E-5,-4.678366E-4,7.275454E-5,2.1232471E-4,-4.784399E-6,-6.7978755E-5,-0E0,1.1698735E-4,1.2506501E-4,3.2596483E-5,6.645255E-5,-2.4018377E-4],"categories":[],"categories_nodes":[],"categories_segments":[],"categories_sizes":[],"default_left":[0,0,0,0,0,0,0,0,0,0,0,0,0,0,0,0,0,0,0,0,0,0,0,0,0,0,0,0,0,0,0,0,0,0,0,0,0,0,0,0,0,0,0,0,0,0,0,0,0,0,0,0,0,0,0,0,0,0,0,0,0,0,0],"id":5,"left_children":[1,3,5,7,9,11,13,15,17,19,21,23,25,27,29,31,33,35,37,39,41,43,45,47,49,51,53,55,57,59,61,-1,-1,-1,-1,-1,-1,-1,-1,-1,-1,-1,-1,-1,-1,-1,-1,-1,-1,-1,-1,-1,-1,-1,-1,-1,-1,-1,-1,-1,-1,-1,-1],"loss_changes":[4.298949E-3,3.5828494E-3,6.8393005E-3,2.8143331E-2,3.2482413E-3,2.4080323E-3,3.1349207E-3,4.048626E-3,2.3316735E-2,4.5490386E-3,2.1461057E-3,8.792698E-4,1.8692985E-3,6.9123216E-4,5.4286327E-3,5.892478E-5,1.3053877E-3,4.6250075E-3,5.565823E-3,5.170481E-3,6.6527077E-3,9.470517E-4,2.5777935E-4,7.287302E-4,1.0859707E-3,3.9234497E-3,3.3877483E-3,1.3484961E-3,1.3986889E-3,2.7185474E-3,5.911297E-3,0E0,0E0,0E0,0E0,0E0,0E0,0E0,0E0,0E0,0E0,0E0,0E0,0E0,0E0,0E0,0E0,0E0,0E0,0E0,0E0,0E0,0E0,0E0,0E0,0E0,0E0,0E0,0E0,0E0,0E0,0E0,0E0],"parents":[2147483647,0,0,1,1,2,2,3,3,4,4,5,5,6,6,7,7,8,8,9,9,10,10,11,11,12,12,13,13,14,14,15,15,16,16,17,17,18,18,19,19,20,20,21,21,22,22,23,23,24,24,25,25,26,26,27,27,28,28,29,29,30,30],"right_children":[2,4,6,8,10,12,14,16,18,20,22,24,26,28,30,32,34,36,38,40,42,44,46,48,50,52,54,56,58,60,62,-1,-1,-1,-1,-1,-1,-1,-1,-1,-1,-1,-1,-1,-1,-1,-1,-1,-1,-1,-1,-1,-1,-1,-1,-1,-1,-1,-1,-1,-1,-1,-1],"split_conditions":[1.1300538E0,6.557827E-1,1.1602926E0,2.606509E-2,8.674285E1,8.459939E-3,1.9660413E-2,4.3977066E1,5.894441E1,3.4256518E-2,1.0958768E0,1.1457915E0,1.142658E0,1.2912769E0,1.3288095E0,3.2759594E1,9.154845E-1,2.4693678E1,6.972809E-2,9.2942417E-1,7.820626E-1,2.101179E-2,1.8880263E-2,9.058968E-1,6.9864457E-3,5.494068E-2,1.5976701E-2,1.2669305E0,1.5976701E-2,1.1911162E0,5.894441E1,-0E0,-1.0122412E-3,-3.640695E-4,-0E0,1.1637254E-3,4.6919376E-4,-0E0,-7.722906E-4,1.8680204E-5,-1.0654549E-5,-1.7373297E-4,-2.5194127E-5,-0E0,1.8614135E-4,-0E0,-1.674594E-4,-0E0,1.1551917E-4,-7.759748E-5,4.7984624E-5,5.932459E-5,-4.678366E-4,7.275454E-5,2.1232471E-4,-4.784399E-6,-6.7978755E-5,-0E0,1.1698735E-4,1.2506501E-4,3.2596483E-5,6.645255E-5,-2.4018377E-4],"split_indices":[2,2,2,4,3,4,4,3,3,4,2,2,2,2,2,3,5,3,4,2,2,4,4,5,4,4,4,2,4,2,3,0,0,0,0,0,0,0,0,0,0,0,0,0,0,0,0,0,0,0,0,0,0,0,0,0,0,0,0,0,0,0,0],"split_type":[0,0,0,0,0,0,0,0,0,0,0,0,0,0,0,0,0,0,0,0,0,0,0,0,0,0,0,0,0,0,0,0,0,0,0,0,0,0,0,0,0,0,0,0,0,0,0,0,0,0,0,0,0,0,0,0,0,0,0,0,0,0,0],"sum_hessian":[1.07527E5,8.4415E4,2.3112E4,4.16E2,8.3999E4,4.575E3,1.8537E4,9.8E1,3.18E2,8.3392E4,6.07E2,1.349E3,3.226E3,1.399E4,4.547E3,4.6E1,5.2E1,2.44E2,7.4E1,7.6852E4,6.54E3,5.37E2,7E1,6.91E2,6.58E2,1.077E3,2.149E3,1.2148E4,1.842E3,3.955E3,5.92E2,6E0,4E1,3.2E1,2E1,4.5E1,1.99E2,3.6E1,3.8E1,2.0406E4,5.6446E4,8.97E2,5.643E3,1.31E2,4.06E2,1.6E1,5.4E1,3.95E2,2.96E2,4.07E2,2.51E2,1.043E3,3.4E1,1.36E3,7.89E2,1.1207E4,9.41E2,1.521E3,3.21E2,1.289E3,2.666E3,2.63E2,3.29E2],"tree_param":{"num_deleted":"0","num_feature":"6","num_nodes":"63","size_leaf_vector":"1"}},{"base_weights":[8.627679E-6,2.9185822E-3,-1.2343398E-5,1.2835023E-2,1.6850703E-4,-9.62939E-4,6.3084975E-5,-3.9272723E-4,1.6575268E-2,1.1350727E-2,-1.5359567E-3,-1.1995916E-3,4.4353744E-3,-5.6145713E-5,3.1577577E-4,2.7114829E-2,1.3434241E-2,2.5255157E-2,1.4507044E-3,-8.491759E-3,1.1925449E-3,-7.2049145E-3,-1.0528069E-3,8.469054E-3,1.0145778E-3,5.8857945E-4,-2.6792084E-4,-2.9535668E-3,4.0066883E-4,1.6285708E-3,-0E0,9.789574E-4,6.075215E-5,9.79346E-5,2.2545632E-3,5.337673E-4,-4.947524E-5,-1.0646165E-3,-1.5454035E-4,2.649896E-4,-3.9909515E-4,-5.6478486E-4,1.0637562E-3,8.960165E-5,-7.049622E-5,-0E0,4.746989E-4,-3.8083174E-4,2.0286381E-4,3.4153138E-5,-2.4397003E-4,-2.7649098E-6,-2.5993335E-5,-4.6107354E-5,-3.7398725E-4,2.600349E-5,-2.5100937E-5],"categories":[],"categories_nodes":[],"categories_segments":[],"categories_sizes":[],"default_left":[0,0,0,0,0,0,0,0,0,0,0,0,0,0,0,0,0,0,0,0,0,0,0,0,0,0,0,0,0,0,0,0,0,0,0,0,0,0,0,0,0,0,0,0,0,0,0,0,0,0,0,0,0,0,0,0,0],"id":6,"left_children":[1,3,5,7,9,11,13,-1,15,17,19,21,23,25,27,29,31,33,35,37,39,41,43,45,47,49,51,53,55,-1,-1,-1,-1,-1,-1,-1,-1,-1,-1,-1,-1,-1,-1,-1,-1,-1,-1,-1,-1,-1,-1,-1,-1,-1,-1,-1,-1],"loss_changes":[6.831245E-3,2.0541523E-2,7.717621E-3,1.3848012E-2,1.3120873E-2,9.797179E-3,2.992493E-3,0E0,3.8105994E-4,9.956958E-3,1.1083559E-2,5.869489E-3,3.3895387E-3,9.065399E-3,8.581246E-3,2.8375927E-3,6.9821756E-3,1.0918463E-2,2.3072404E-3,8.834062E-3,1.4168509E-2,1.8465802E-2,7.522924E-3,5.189618E-4,4.533469E-3,8.034777E-3,2.6354953E-3,6.287897E-3,3.3496604E-3,0E0,0E0,0E0,0E0,0E0,0E0,0E0,0E0,0E0,0E0,0E0,0E0,0E0,0E0,0E0,0E0,0E0,0E0,0E0,0E0,0E0,0E0,0E0,0E0,0E0,0E0,0E0,0E0],"parents":[2147483647,0,0,1,1,2,2,3,3,4,4,5,5,6,6,8,8,9,9,10,10,11,11,12,12,13,13,14,14,15,15,16,16,17,17,18,18,19,19,20,20,21,21,22,22,23,23,24,24,25,25,26,26,27,27,28,28],"right_children":[2,4,6,8,10,12,14,-1,16,18,20,22,24,26,28,30,32,34,36,38,40,42,44,46,48,50,52,54,56,-1,-1,-1,-1,-1,-1,-1,-1,-1,-1,-1,-1,-1,-1,-1,-1,-1,-1,-1,-1,-1,-1,-1,-1,-1,-1,-1,-1],"split_conditions":[8.899711E-1,6.557827E-1,9.5589197E-1,2.606509E-2,3.1061077E-2,1.1337011E0,1.0159767E0,-3.9272723E-4,3.6734708E-2,8.6549693E-1,4.4663355E-2,6.557827E-1,1.1911162E0,9.354311E-1,7.94321E-1,1.1864609E0,8.6549693E-1,8.031428E-1,7.3890096E-1,7.0692325E-1,8.226794E-1,9.4354886E-1,9.138017E-1,2.009053E-2,1.2300208E0,5.8740746E-2,9.976662E-1,2.6464928E-2,1.2544315E0,1.6285708E-3,-0E0,9.789574E-4,6.075215E-5,9.79346E-5,2.2545632E-3,5.337673E-4,-4.947524E-5,-1.0646165E-3,-1.5454035E-4,2.649896E-4,-3.9909515E-4,-5.6478486E-4,1.0637562E-3,8.960165E-5,-7.049622E-5,-0E0,4.746989E-4,-3.8083174E-4,2.0286381E-4,3.4153138E-5,-2.4397003E-4,-2.7649098E-6,-2.5993335E-5,-4.6107354E-5,-3.7398725E-4,2.600349E-5,-2.5100937E-5],"split_indices":[0,2,0,4,4,2,0,0,4,0,4,2,2,2,2,5,0,2,2,2,2,0,0,4,2,4,0,4,2,0,0,0,0,0,0,0,0,0,0,0,0,0,0,0,0,0,0,0,0,0,0,0,0,0,0,0,0],"split_type":[0,0,0,0,0,0,0,0,0,0,0,0,0,0,0,0,0,0,0,0,0,0,0,0,0,0,0,0,0,0,0,0,0,0,0,0,0,0,0,0,0,0,0,0,0,0,0,0,0,0,0,0,0,0,0,0,0],"sum_hessian":[1.07178E5,8E2,1.06378E5,1.65E2,6.35E2,7.917E3,9.8461E4,2.1E1,1.44E2,9.1E1,5.44E2,7.603E3,3.14E2,6.6628E4,3.1833E4,2.4E1,1.2E2,3.3E1,5.8E1,1.63E2,3.81E2,1.64E2,7.439E3,1.3E2,1.84E2,1.6357E4,5.0271E4,7.75E2,3.1058E4,1.9E1,5E0,7.4E1,4.6E1,1.8E1,1.5E1,2E1,3.8E1,4.2E1,1.21E2,2.71E2,1.1E2,1.47E2,1.7E1,7.98E2,6.641E3,2.1E1,1.09E2,3.9E1,1.45E2,1.6098E4,2.59E2,2.7479E4,2.2792E4,5.51E2,2.24E2,2.7528E4,3.53E3],"tree_param":{"num_deleted":"0","num_feature":"6","num_nodes":"57","size_leaf_vector":"1"}},{"base_weights":[-3.7293577E-7,1.8211365E-5,-4.9273157E-3,-5.1088333E-5,1.1506145E-3,-0E0,-7.6360703E-3,1.9816938E-3,-7.779446E-5,3.1932927E-5,2.039092E-3,1.3274197E-3,-1.000504E-3,-0E0,-3.8624124E-4,5.8424748E-3,-8.871609E-4,-7.4403873E-3,-5.7449524E-5,2.637115E-3,-1.5370487E-4,3.0674317E-3,-9.800493E-4,-0E0,3.2603552E-3,-0E0,-2.2287283E-3,3.5091199E-4,-2.929123E-4,5.942961E-5,-8.6214114E-4,4.4257406E-5,-5.519332E-4,-9.19535E-6,1.4644838E-5,1.9688139E-4,-0E0,-7.851453E-5,7.2670236E-6,3.1818147E-4,1.1173331E-4,-3.1201539E-4,-0E0,-1.4603926E-5,-0E0,2.0630064E-4,-0E0,-3.313153E-4,-0E0],"categories":[],"categories_nodes":[],"categories_segments":[],"categories_sizes":[],"default_left":[0,0,0,0,0,0,0,0,0,0,0,0,0,0,0,0,0,0,0,0,0,0,0,0,0,0,0,0,0,0,0,0,0,0,0,0,0,0,0,0,0,0,0,0,0,0,0,0,0],"id":7,"left_children":[1,3,5,7,9,11,13,15,17,19,21,23,25,-1,-1,27,29,31,33,35,37,39,41,43,45,-1,47,-1,-1,-1,-1,-1,-1,-1,-1,-1,-1,-1,-1,-1,-1,-1,-1,-1,-1,-1,-1,-1,-1],"loss_changes":[1.0305174E-2,8.488179E-3,6.2318267E-3,5.2669304E-3,5.994914E-3,2.1368044E-4,8.7462366E-5,1.4401119E-2,1.4119437E-2,1.6091701E-3,1.0854665E-2,5.465723E-4,1.6554249E-4,0E0,0E0,7.7236276E-3,2.559484E-2,8.814093E-3,4.3756845E-3,6.043571E-4,1.2403313E-3,6.2134378E-3,4.4824947E-3,2.1327462E-6,1.0494684E-4,0E0,3.5721218E-4,0E0,0E0,0E0,0E0,0E0,0E0,0E0,0E0,0E0,0E0,0E0,0E0,0E0,0E0,0E0,0E0,0E0,0E0,0E0,0E0,0E0,0E0],"parents":[2147483647,0,0,1,1,2,2,3,3,4,4,5,5,6,6,7,7,8,8,9,9,10,10,11,11,12,12,15,15,16,16,17,17,18,18,19,19,20,20,21,21,22,22,23,23,24,24,26,26],"right_children":[2,4,6,8,10,12,14,16,18,20,22,24,26,-1,-1,28,30,32,34,36,38,40,42,44,46,-1,48,-1,-1,-1,-1,-1,-1,-1,-1,-1,-1,-1,-1,-1,-1,-1,-1,-1,-1,-1,-1,-1,-1],"split_conditions":[1.2131557E0,1.1292665E0,1.0788815E0,8.25762E-1,1.29199205E-2,6.3685345E1,3.2759594E1,8.899711E-1,8.899711E-1,1.0026602E0,1.1899679E0,4.6744713E1,9.937859E-3,-0E0,-3.8624124E-4,6.3022232E1,6.3280985E-2,3.1589586E-2,1.0159767E0,1.1452739E0,1.1452739E0,1.0163654E0,1.0455492E0,3.588692E-2,5.803963E1,-0E0,2.813708E-2,3.5091199E-4,-2.929123E-4,5.942961E-5,-8.6214114E-4,4.4257406E-5,-5.519332E-4,-9.19535E-6,1.4644838E-5,1.9688139E-4,-0E0,-7.851453E-5,7.2670236E-6,3.1818147E-4,1.1173331E-4,-3.1201539E-4,-0E0,-1.4603926E-5,-0E0,2.0630064E-4,-0E0,-3.313153E-4,-0E0],"split_indices":[1,1,0,1,4,3,3,0,0,0,1,3,4,0,0,3,4,4,0,1,1,0,0,4,3,0,4,0,0,0,0,0,0,0,0,0,0,0,0,0,0,0,0,0,0,0,0,0,0],"split_type":[0,0,0,0,0,0,0,0,0,0,0,0,0,0,0,0,0,0,0,0,0,0,0,0,0,0,0,0,0,0,0,0,0,0,0,0,0,0,0,0,0,0,0,0,0,0,0,0,0],"sum_hessian":[1.07183E5,1.06761E5,4.22E2,1.00522E5,6.239E3,1.4E2,2.82E2,1.254E3,9.9268E4,2.812E3,3.427E3,9.3E1,4.7E1,5E0,2.77E2,5.49E2,7.05E2,2.59E2,9.9009E4,2.22E2,2.59E3,2.581E3,8.46E2,2.7E1,6.6E1,5E0,4.2E1,5.07E2,4.2E1,6.21E2,8.4E1,7E1,1.89E2,7.296E4,2.6049E4,1.38E2,8.4E1,5.09E2,2.081E3,4.95E2,2.086E3,1.35E2,7.11E2,2.4E1,3E0,4.7E1,1.9E1,1.2E1,3E1],"tree_param":{"num_deleted":"0","num_feature":"6","num_nodes":"49","size_leaf_vector":"1"}},{"base_weights":[-1.0486313E-5,1.4843291E-5,-3.2745965E-3,-5.8125486E-5,1.2861113E-3,-1.8963842E-3,-7.3540094E-3,-2.492351E-5,-2.8842534E-3,-1.9552684E-3,1.593482E-3,-4.2292615E-3,1.5098705E-3,-0E0,-4.4943028E-4,4.1267276E-3,-4.2793443E-5,-1.946619E-3,-1.0032909E-2,-8.514252E-4,-1.2342194E-3,1.0294403E-3,6.578035E-3,-0E0,-2.245348E-4,3.5562215E-3,-0E0,-0E0,2.2890093E-4,-5.4871687E-4,4.7047777E-4,-8.650746E-6,1.6781709E-5,-6.92697E-5,-9.0744905E-4,-8.256849E-4,-1.7294403E-4,-2.396835E-4,3.063728E-5,8.894644E-5,-4.2868363E-5,1.115944E-4,5.830279E-4,-0E0,2.8779623E-4,1.6667163E-4,-7.946377E-5,2.598642E-4,-0E0],"categories":[],"categories_nodes":[],"categories_segments":[],"categories_sizes":[],"default_left":[0,0,0,0,0,0,0,0,0,0,0,0,0,0,0,0,0,0,0,0,0,0,0,0,0,0,0,0,0,0,0,0,0,0,0,0,0,0,0,0,0,0,0,0,0,0,0,0,0],"id":8,"left_children":[1,3,5,7,9,11,13,15,17,19,21,23,25,27,-1,29,31,33,35,37,-1,39,41,-1,-1,43,45,-1,47,-1,-1,-1,-1,-1,-1,-1,-1,-1,-1,-1,-1,-1,-1,-1,-1,-1,-1,-1,-1],"loss_changes":[9.211991E-3,1.00131575E-2,3.884946E-3,9.163439E-3,5.807277E-3,5.530878E-3,2.4614623E-3,6.98286E-3,6.390224E-3,9.468307E-3,1.4366761E-2,6.321799E-4,9.051784E-4,1.6766604E-6,0E0,3.2096647E-2,4.8733964E-3,7.269175E-3,3.0156048E-3,3.0935209E-3,0E0,6.959334E-3,1.027002E-2,0E0,0E0,8.726119E-4,6.6371524E-4,0E0,3.4947618E-4,0E0,0E0,0E0,0E0,0E0,0E0,0E0,0E0,0E0,0E0,0E0,0E0,0E0,0E0,0E0,0E0,0E0,0E0,0E0,0E0],"parents":[2147483647,0,0,1,1,2,2,3,3,4,4,5,5,6,6,7,7,8,8,9,9,10,10,11,11,12,12,13,13,15,15,16,16,17,17,18,18,19,19,21,21,22,22,25,25,26,26,28,28],"right_children":[2,4,6,8,10,12,14,16,18,20,22,24,26,28,-1,30,32,34,36,38,-1,40,42,-1,-1,44,46,-1,48,-1,-1,-1,-1,-1,-1,-1,-1,-1,-1,-1,-1,-1,-1,-1,-1,-1,-1,-1,-1],"split_conditions":[1.2029384E0,1.1292665E0,1.3428992E0,1.2669305E0,1.142658E0,1.2912769E0,1.0676686E0,7.5522476E-1,1.0296465E0,1.1194458E0,1.0788815E0,1.1752547E0,1.3160532E0,1.4719568E-2,-4.4943028E-4,2.7702212E-2,1.0167737E0,1.3753513E0,1.2912769E0,1.0916177E0,-1.2342194E-3,1.1803851E0,2.2043949E-2,-0E0,-2.245348E-4,1.0654277E0,1.0788815E0,-0E0,2.6833236E-2,-5.4871687E-4,4.7047777E-4,-8.650746E-6,1.6781709E-5,-6.92697E-5,-9.0744905E-4,-8.256849E-4,-1.7294403E-4,-2.396835E-4,3.063728E-5,8.894644E-5,-4.2868363E-5,1.115944E-4,5.830279E-4,-0E0,2.8779623E-4,1.6667163E-4,-7.946377E-5,2.598642E-4,-0E0],"split_indices":[1,1,2,2,2,2,0,1,0,0,0,2,2,4,0,4,0,2,2,2,0,1,4,0,0,0,0,0,4,0,0,0,0,0,0,0,0,0,0,0,0,0,0,0,0,0,0,0,0],"split_type":[0,0,0,0,0,0,0,0,0,0,0,0,0,0,0,0,0,0,0,0,0,0,0,0,0,0,0,0,0,0,0,0,0,0,0,0,0,0,0,0,0,0,0,0,0,0,0,0,0],"sum_hessian":[1.07475E5,1.06618E5,8.57E2,1.00757E5,5.861E3,6.6E2,1.97E2,9.9623E4,1.134E3,4.79E2,5.382E3,4.09E2,2.51E2,3.5E1,1.62E2,4.02E2,9.9221E4,1.016E3,1.18E2,4.62E2,1.7E1,4.854E3,5.28E2,1.5E1,3.94E2,1.16E2,1.35E2,4E0,3.1E1,9.9E1,3.03E2,7.4016E4,2.5205E4,9.89E2,2.7E1,5.1E1,6.7E1,1.43E2,3.19E2,3.512E3,1.342E3,2.96E2,2.32E2,4.6E1,7E1,3.6E1,9.9E1,1.2E1,1.9E1],"tree_param":{"num_deleted":"0","num_feature":"6","num_nodes":"49","size_leaf_vector":"1"}},{"base_weights":[-1.1806693E-5,-2.9009518E-5,2.041649E-3,-1.6035045E-4,2.1572881E-4,3.7804442E-3,9.974926E-4,4.1855423E-4,-2.5395755E-4,4.7725654E-4,-3.377331E-5,-0E0,4.4425167E-3,-0E0,2.542518E-3,6.9710764E-4,-3.575988E-3,-1.664773E-4,-1.0704448E-3,2.4461362E-4,1.3744187E-3,3.1644053E-5,-1.8082425E-3,-0E0,-1.4997976E-3,-0E0,5.024813E-3,-5.9547205E-4,1.3330888E-3,-0E0,3.408363E-3,1.6547292E-6,7.5082025E-5,1.5978441E-4,-3.6989138E-4,4.1564178E-7,-1.3214204E-5,-1.5368058E-4,-3.0334622E-5,4.778205E-5,-5.954077E-7,4.9838E-5,1.261469E-4,-2.108463E-5,1.8014563E-5,-0E0,-2.2328645E-4,-0E0,-1.2621463E-4,1.943296E-4,5.777081E-4,-0E0,-1.2280399E-4,-0E0,1.6624834E-4,1.9772924E-4,-0E0],"categories":[],"categories_nodes":[],"categories_segments":[],"categories_sizes":[],"default_left":[0,0,0,0,0,0,0,0,0,0,0,0,0,0,0,0,0,0,0,0,0,0,0,0,0,0,0,0,0,0,0,0,0,0,0,0,0,0,0,0,0,0,0,0,0,0,0,0,0,0,0,0,0,0,0,0,0],"id":9,"left_children":[1,3,5,7,9,11,13,15,17,19,21,23,25,27,29,31,33,35,37,39,41,43,45,-1,47,-1,49,51,53,-1,55,-1,-1,-1,-1,-1,-1,-1,-1,-1,-1,-1,-1,-1,-1,-1,-1,-1,-1,-1,-1,-1,-1,-1,-1,-1,-1],"loss_changes":[3.5885223E-3,3.4158889E-3,1.0489647E-3,3.751612E-3,2.4526096E-3,9.717685E-4,8.8685E-4,1.0318573E-2,4.162006E-3,3.6395667E-3,2.3476211E-3,4.7237245E-5,7.327562E-4,2.663677E-4,5.5008824E-4,4.618668E-3,1.592025E-2,9.5404754E-4,4.921537E-3,2.7489471E-3,1.2339018E-3,2.6720678E-3,3.4922783E-3,0E0,6.745968E-5,0E0,9.061443E-5,4.457439E-4,4.1572496E-4,0E0,4.415298E-4,0E0,0E0,0E0,0E0,0E0,0E0,0E0,0E0,0E0,0E0,0E0,0E0,0E0,0E0,0E0,0E0,0E0,0E0,0E0,0E0,0E0,0E0,0E0,0E0,0E0,0E0],"parents":[2147483647,0,0,1,1,2,2,3,3,4,4,5,5,6,6,7,7,8,8,9,9,10,10,11,11,12,12,13,13,14,14,15,15,16,16,17,17,18,18,19,19,20,20,21,21,22,22,24,24,26,26,27,27,28,28,30,30],"right_children":[2,4,6,8,10,12,14,16,18,20,22,24,26,28,30,32,34,36,38,40,42,44,46,-1,48,-1,50,52,54,-1,56,-1,-1,-1,-1,-1,-1,-1,-1,-1,-1,-1,-1,-1,-1,-1,-1,-1,-1,-1,-1,-1,-1,-1,-1,-1,-1],"split_conditions":[8.674285E1,1.0673267E0,9.818788E-1,8.605899E-1,5.0794846E1,7.94321E-1,1.7787092E0,6.3280985E-2,2.9076036E-2,1.8880263E-2,1.3428992E0,7.3890096E-1,1.5570913E-2,4.9943242E-2,1.7289171E-2,8.1645286E-1,7.0692325E-1,9.503221E-1,8.9955467E-1,1.1046586E0,4.224252E1,1.136961E0,1.9272303E-2,-0E0,2.7702212E-2,-0E0,9.665623E-1,1.1060877E0,1.1708829E0,-0E0,6.3280985E-2,1.6547292E-6,7.5082025E-5,1.5978441E-4,-3.6989138E-4,4.1564178E-7,-1.3214204E-5,-1.5368058E-4,-3.0334622E-5,4.778205E-5,-5.954077E-7,4.9838E-5,1.261469E-4,-2.108463E-5,1.8014563E-5,-0E0,-2.2328645E-4,-0E0,-1.2621463E-4,1.943296E-4,5.777081E-4,-0E0,-1.2280399E-4,-0E0,1.6624834E-4,1.9772924E-4,-0E0],"split_indices":[3,2,2,2,3,2,5,4,4,4,2,2,4,4,4,2,2,2,2,2,3,2,4,0,4,0,2,2,2,0,4,0,0,0,0,0,0,0,0,0,0,0,0,0,0,0,0,0,0,0,0,0,0,0,0,0,0],"split_type":[0,0,0,0,0,0,0,0,0,0,0,0,0,0,0,0,0,0,0,0,0,0,0,0,0,0,0,0,0,0,0,0,0,0,0,0,0,0,0,0,0,0,0,0,0,0,0,0,0,0,0,0,0,0,0,0,0],"sum_hessian":[1.0728E5,1.06438E5,8.42E2,6.9532E4,3.6906E4,2.79E2,5.63E2,9.529E3,6.0003E4,1.8214E4,1.8692E4,2.8E1,2.51E2,3.4E2,2.23E2,8.932E3,5.97E2,5.4308E4,5.695E3,1.4553E4,3.661E3,1.7974E4,7.18E2,8E0,2E1,2.6E1,2.25E2,2.39E2,1.01E2,5.2E1,1.71E2,4.962E3,3.97E3,2.06E2,3.91E2,1.9119E4,3.5189E4,1.029E3,4.666E3,3.961E3,1.0592E4,2.822E3,8.39E2,7.426E3,1.0548E4,4.26E2,2.92E2,3E0,1.7E1,2.06E2,1.9E1,1.52E2,8.7E1,4.8E1,5.3E1,1.55E2,1.6E1],"tree_param":{"num_deleted":"0","num_feature":"6","num_nodes":"57","size_leaf_vector":"1"}},{"base_weights":[-7.296787E-6,1.5730824E-5,-3.0586289E-3,-6.12757E-5,1.3520418E-3,1.3519595E-4,-3.5241744E-3,-8.290831E-5,1.7653247E-3,2.3623645E-4,2.2536095E-3,-5.621854E-3,-1.7475932E-3,-2.5441825E-5,-7.358826E-4,2.5839761E-3,-2.5530837E-3,-9.7259704E-4,4.8621843E-4,3.004769E-3,1.6150992E-5,-1.7150257E-3,-6.9573605E-3,4.7550735E-4,-4.6965214E-3,-2.875775E-4,-7.7884135E-7,3.8291977E-4,-5.2174768E-5,-1.511842E-4,1.4984356E-4,-0E0,-1.682872E-4,-0E0,-7.593213E-5,1.3446572E-4,1.5559155E-5,1.7903486E-4,-0E0,-1.6329997E-5,1.3746043E-4,-1.743211E-4,6.5822125E-5,-3.716124E-4,-0E0,9.2489354E-5,-9.5455165E-5,-4.0926938E-5,-3.0842613E-4],"categories":[],"categories_nodes":[],"categories_segments":[],"categories_sizes":[],"default_left":[0,0,0,0,0,0,0,0,0,0,0,0,0,0,0,0,0,0,0,0,0,0,0,0,0,0,0,0,0,0,0,0,0,0,0,0,0,0,0,0,0,0,0,0,0,0,0,0,0],"id":10,"left_children":[1,3,5,7,9,-1,11,13,15,17,19,21,23,25,27,29,31,33,35,37,39,41,43,45,47,-1,-1,-1,-1,-1,-1,-1,-1,-1,-1,-1,-1,-1,-1,-1,-1,-1,-1,-1,-1,-1,-1,-1,-1],"loss_changes":[7.841582E-3,1.1081715E-2,2.3343163E-3,3.805642E-3,5.6555495E-3,0E0,2.1973224E-3,3.6553612E-3,3.979796E-3,7.5988204E-4,5.0710216E-3,8.73941E-4,3.4072073E-3,4.5941705E-3,1.9753523E-2,2.2384021E-3,4.1842402E-4,2.2840672E-4,5.802542E-4,4.4377707E-3,1.0281618E-3,7.908003E-4,9.709038E-4,7.873862E-4,5.2354904E-4,0E0,0E0,0E0,0E0,0E0,0E0,0E0,0E0,0E0,0E0,0E0,0E0,0E0,0E0,0E0,0E0,0E0,0E0,0E0,0E0,0E0,0E0,0E0,0E0],"parents":[2147483647,0,0,1,1,2,2,3,3,4,4,6,6,7,7,8,8,9,9,10,10,11,11,12,12,13,13,14,14,15,15,16,16,17,17,18,18,19,19,20,20,21,21,22,22,23,23,24,24],"right_children":[2,4,6,8,10,-1,12,14,16,18,20,22,24,26,28,30,32,34,36,38,40,42,44,46,48,-1,-1,-1,-1,-1,-1,-1,-1,-1,-1,-1,-1,-1,-1,-1,-1,-1,-1,-1,-1,-1,-1,-1,-1],"split_conditions":[1.2029384E0,1.1292665E0,8.526801E-3,8.471892E1,1.2827581E-2,1.3519595E-4,2.2043949E-2,3.3537243E-2,1.0740336E0,1.1405289E0,1.1849326E0,1.2137778E-2,6.461067E1,7.5522476E-1,7.5522476E-1,9.335475E-1,2.009053E-2,6.9324833E-1,3.4101665E1,3.7644133E-2,4.068099E-2,5.8217873E1,2.233609E0,1.0393271E0,1.2131557E0,-2.875775E-4,-7.7884135E-7,3.8291977E-4,-5.2174768E-5,-1.511842E-4,1.4984356E-4,-0E0,-1.682872E-4,-0E0,-7.593213E-5,1.3446572E-4,1.5559155E-5,1.7903486E-4,-0E0,-1.6329997E-5,1.3746043E-4,-1.743211E-4,6.5822125E-5,-3.716124E-4,-0E0,9.2489354E-5,-9.5455165E-5,-4.0926938E-5,-3.0842613E-4],"split_indices":[1,1,4,3,4,0,4,4,1,1,1,4,3,1,1,1,4,5,3,4,4,3,5,5,1,0,0,0,0,0,0,0,0,0,0,0,0,0,0,0,0,0,0,0,0,0,0,0,0],"split_type":[0,0,0,0,0,0,0,0,0,0,0,0,0,0,0,0,0,0,0,0,0,0,0,0,0,0,0,0,0,0,0,0,0,0,0,0,0,0,0,0,0,0,0,0,0,0,0,0,0],"sum_hessian":[1.07268E5,1.06433E5,8.35E2,1.00564E5,5.869E3,4.6E1,7.89E2,9.9442E4,1.122E3,2.673E3,3.196E3,3.35E2,4.54E2,9.154E4,7.902E3,9.63E2,1.59E2,3.89E2,2.284E3,2.359E3,8.37E2,1.05E2,2.3E2,2.4E2,2.14E2,1.39E2,9.1401E4,2.67E2,7.635E3,4.9E1,9.14E2,3.1E1,1.28E2,1.31E2,2.58E2,1.25E2,2.159E3,2.007E3,3.52E2,7.12E2,1.25E2,8.7E1,1.8E1,2.19E2,1.1E1,1.79E2,6.1E1,7.8E1,1.36E2],"tree_param":{"num_deleted":"0","num_feature":"6","num_nodes":"49","size_leaf_vector":"1"}},{"base_weights":[1.9430348E-5,3.863233E-5,-4.509802E-3,-2.611578E-5,1.1021612E-3,-1.835455E-3,-9.939167E-3,-1.2416643E-6,-2.8254513E-3,-4.648801E-3,1.2620962E-3,-5.0849332E-3,3.3992555E-4,-0E0,-5.072901E-4,9.501746E-4,-6.2289415E-5,-1.9140525E-3,-1.0151967E-2,8.2113146E-4,-1.1445327E-2,8.766797E-4,3.653904E-3,-0E0,-6.274152E-3,2.5773458E-3,-2.3009452E-4,5.8446127E-5,-3.185292E-4,-1.1158686E-5,1.8239836E-5,-7.4992444E-5,-5.1152316E-4,-8.749367E-4,-1.4031066E-4,-0E0,1.3345374E-4,-0E0,-6.4843067E-4,8.1593585E-5,-4.1717958E-5,6.581665E-5,4.1356785E-4,-0E0,-3.2763107E-4,-0E0,1.7931758E-4,-1.1643019E-4,2.8274476E-4],"categories":[],"categories_nodes":[],"categories_segments":[],"categories_sizes":[],"default_left":[0,0,0,0,0,0,0,0,0,0,0,0,0,0,0,0,0,0,0,0,0,0,0,0,0,0,0,0,0,0,0,0,0,0,0,0,0,0,0,0,0,0,0,0,0,0,0,0,0],"id":11,"left_children":[1,3,5,7,9,11,13,15,17,19,21,23,25,-1,-1,27,29,31,33,35,37,39,41,-1,43,45,47,-1,-1,-1,-1,-1,-1,-1,-1,-1,-1,-1,-1,-1,-1,-1,-1,-1,-1,-1,-1,-1,-1],"loss_changes":[8.905402E-3,7.4829743E-3,5.0769364E-3,6.7410055E-3,5.402023E-3,2.6180914E-3,2.3072399E-4,5.7204985E-3,4.46977E-3,6.722651E-3,5.1522264E-3,5.527714E-4,4.4447964E-4,0E0,0E0,8.98679E-3,6.4507737E-3,1.4709237E-3,2.345737E-3,3.6127193E-4,6.3999183E-4,6.8998565E-3,7.7515924E-3,0E0,2.4980772E-4,2.3619639E-4,8.661106E-4,0E0,0E0,0E0,0E0,0E0,0E0,0E0,0E0,0E0,0E0,0E0,0E0,0E0,0E0,0E0,0E0,0E0,0E0,0E0,0E0,0E0,0E0],"parents":[2147483647,0,0,1,1,2,2,3,3,4,4,5,5,6,6,7,7,8,8,9,9,10,10,11,11,12,12,15,15,16,16,17,17,18,18,19,19,20,20,21,21,22,22,24,24,25,25,26,26],"right_children":[2,4,6,8,10,12,14,16,18,20,22,24,26,-1,-1,28,30,32,34,36,38,40,42,-1,44,46,48,-1,-1,-1,-1,-1,-1,-1,-1,-1,-1,-1,-1,-1,-1,-1,-1,-1,-1,-1,-1,-1,-1],"split_conditions":[1.2131557E0,1.1292665E0,1.3428992E0,1.2733994E0,1.0958768E0,1.2912769E0,3.355967E1,8.972217E-1,1.0321317E0,9.8415226E-1,1.0827756E0,1.0788815E0,1.0788815E0,-0E0,-5.072901E-4,1.0290757E0,1.0159767E0,1.3753513E0,1.2912769E0,4.5611446E1,1.0428396E0,1.1803851E0,6.3022232E1,-0E0,1.181124E0,4.4303467E1,7.263296E1,5.8446127E-5,-3.185292E-4,-1.1158686E-5,1.8239836E-5,-7.4992444E-5,-5.1152316E-4,-8.749367E-4,-1.4031066E-4,-0E0,1.3345374E-4,-0E0,-6.4843067E-4,8.1593585E-5,-4.1717958E-5,6.581665E-5,4.1356785E-4,-0E0,-3.2763107E-4,-0E0,1.7931758E-4,-1.1643019E-4,2.8274476E-4],"split_indices":[1,1,2,2,2,2,3,1,0,2,0,0,0,0,0,0,0,2,2,3,0,1,3,0,2,3,3,0,0,0,0,0,0,0,0,0,0,0,0,0,0,0,0,0,0,0,0,0,0],"split_type":[0,0,0,0,0,0,0,0,0,0,0,0,0,0,0,0,0,0,0,0,0,0,0,0,0,0,0,0,0,0,0,0,0,0,0,0,0,0,0,0,0,0,0,0,0,0,0,0,0],"sum_hessian":[1.07534E5,1.07103E5,4.31E2,1.00869E5,6.234E3,3.02E2,1.29E2,1.00017E5,8.52E2,1.51E2,6.083E3,1.39E2,1.63E2,3E0,1.26E2,5.931E3,9.4086E4,7.71E2,8.1E1,7.6E1,7.5E1,5.276E3,8.07E2,3.4E1,1.05E2,6.8E1,9.5E1,5.773E3,1.58E2,6.8512E4,2.5574E4,7.47E2,2.4E1,3.3E1,4.8E1,1.9E1,5.7E1,1.3E1,6.2E1,3.701E3,1.575E3,5.51E2,2.56E2,3E0,1.02E2,1.5E1,5.3E1,8.3E1,1.2E1],"tree_param":{"num_deleted":"0","num_feature":"6","num_nodes":"49","size_leaf_vector":"1"}},{"base_weights":[-1.2339168E-5,6.0275283E-7,-3.4816472E-3,-7.177579E-5,7.8020967E-4,-1.5976705E-3,-7.4705402E-3,-4.014571E-5,-2.4561114E-3,-3.6604789E-3,1.123454E-3,-4.4935904E-3,3.5085093E-4,-9.650402E-3,-2.0742028E-3,-1.1152733E-4,3.8677544E-4,-9.0923975E-4,-4.2966735E-3,-0E0,-6.135338E-3,1.5960268E-3,-2.7918542E-4,-0E0,-4.6085375E-3,1.7221876E-4,-0E0,-5.191336E-4,-0E0,-0E0,-5.836366E-4,1.3217941E-5,-1.1545987E-5,4.733844E-5,-2.2324539E-6,-1.5633278E-4,-0E0,7.9635145E-5,-2.5766285E-4,7.993863E-5,-1.1381832E-4,-1.6346085E-4,-4.889544E-4,-4.909806E-6,1.2561065E-4,-8.8872395E-5,2.1866796E-5,-0E0,-2.3549903E-4,-1.1677378E-4,5.368608E-5,-0E0,9.088289E-5],"categories":[],"categories_nodes":[],"categories_segments":[],"categories_sizes":[],"default_left":[0,0,0,0,0,0,0,0,0,0,0,0,0,0,0,0,0,0,0,0,0,0,0,0,0,0,0,0,0,0,0,0,0,0,0,0,0,0,0,0,0,0,0,0,0,0,0,0,0,0,0,0,0],"id":12,"left_children":[1,3,5,7,9,11,13,15,17,19,21,23,25,27,29,31,33,35,37,39,41,43,45,-1,47,-1,49,-1,-1,51,-1,-1,-1,-1,-1,-1,-1,-1,-1,-1,-1,-1,-1,-1,-1,-1,-1,-1,-1,-1,-1,-1,-1],"loss_changes":[5.1718405E-3,6.1089634E-3,2.2976557E-3,7.1260305E-3,1.3785623E-2,2.1594642E-3,2.1911506E-4,2.9151803E-3,3.0030762E-3,5.69103E-3,5.812086E-3,6.675371E-5,2.7628214E-4,8.60123E-5,1.6967239E-3,3.7184907E-3,3.3836747E-3,1.3634104E-3,3.0682432E-3,9.689594E-4,2.6212586E-3,1.0273665E-2,2.3967307E-3,0E0,6.6735316E-5,0E0,3.9169175E-4,0E0,0E0,9.911638E-5,0E0,0E0,0E0,0E0,0E0,0E0,0E0,0E0,0E0,0E0,0E0,0E0,0E0,0E0,0E0,0E0,0E0,0E0,0E0,0E0,0E0,0E0,0E0],"parents":[2147483647,0,0,1,1,2,2,3,3,4,4,5,5,6,6,7,7,8,8,9,9,10,10,11,11,12,12,13,13,14,14,15,15,16,16,17,17,18,18,19,19,20,20,21,21,22,22,24,24,26,26,29,29],"right_children":[2,4,6,8,10,12,14,16,18,20,22,24,26,28,30,32,34,36,38,40,42,44,46,-1,48,-1,50,-1,-1,52,-1,-1,-1,-1,-1,-1,-1,-1,-1,-1,-1,-1,-1,-1,-1,-1,-1,-1,-1,-1,-1,-1,-1],"split_conditions":[1.2131557E0,1.106138E0,1.3428992E0,1.2544315E0,1.0730059E0,1.2912769E0,1.3995916E0,1.0561706E0,1.0592675E0,9.9136746E-1,1.1803851E0,1.1834728E0,9.314531E-3,1.7525094E0,1.1782677E0,9.496947E-1,1.0718849E0,1.0333996E0,5.466878E-3,1.1214632E0,1.118092E0,9.594954E-3,1.2215283E0,-0E0,3.061606E-1,1.7221876E-4,2.2043949E-2,-5.191336E-4,-0E0,1.8686345E-2,-5.836366E-4,1.3217941E-5,-1.1545987E-5,4.733844E-5,-2.2324539E-6,-1.5633278E-4,-0E0,7.9635145E-5,-2.5766285E-4,7.993863E-5,-1.1381832E-4,-1.6346085E-4,-4.889544E-4,-4.909806E-6,1.2561065E-4,-8.8872395E-5,2.1866796E-5,-0E0,-2.3549903E-4,-1.1677378E-4,5.368608E-5,-0E0,9.088289E-5],"split_indices":[1,1,2,2,2,2,2,1,1,2,1,2,4,5,5,1,1,1,4,1,1,4,2,0,5,0,4,0,0,4,0,0,0,0,0,0,0,0,0,0,0,0,0,0,0,0,0,0,0,0,0,0,0],"split_type":[0,0,0,0,0,0,0,0,0,0,0,0,0,0,0,0,0,0,0,0,0,0,0,0,0,0,0,0,0,0,0,0,0,0,0,0,0,0,0,0,0,0,0,0,0,0,0,0,0,0,0,0,0],"sum_hessian":[1.07433E5,1.07006E5,4.27E2,9.7799E4,9.207E3,3.08E2,1.19E2,9.6561E4,1.238E3,6.39E2,8.568E3,1.44E2,1.64E2,7.1E1,4.8E1,8.293E4,1.3631E4,7.03E2,5.35E2,2.61E2,3.78E2,6.462E3,2.106E3,4E0,1.4E2,2.4E1,1.4E2,6.2E1,9E0,3.5E1,1.3E1,1.9789E4,6.3141E4,6.032E3,7.599E3,1.98E2,5.05E2,5.3E1,4.82E2,1.49E2,1.12E2,2.28E2,1.5E2,2.23E3,4.232E3,7.26E2,1.38E3,3E0,1.37E2,5.2E1,8.8E1,6E0,2.9E1],"tree_param":{"num_deleted":"0","num_feature":"6","num_nodes":"53","size_leaf_vector":"1"}},{"base_weights":[2.2172168E-5,4.281171E-5,-2.5087923E-3,-1.8963605E-5,1.1179842E-3,-1.2899074E-3,-6.2174937E-3,1.9217077E-6,-3.4457261E-3,-4.6393047E-3,1.2805344E-3,-3.3887704E-3,1.3710527E-3,-1.2192755E-3,-9.887181E-3,6.7900063E-4,-5.552159E-5,-2.812863E-3,-1.3606411E-2,-0E0,-1.0304328E-2,8.696596E-4,3.7221792E-3,-0E0,-3.738658E-3,3.2143747E-3,-0E0,1.9443045E-4,-5.006517E-3,-0E0,-5.066849E-4,-4.8108963E-5,8.3636594E-5,-5.1597897E-5,5.6292555E-7,-1.003073E-4,-3.7288477E-4,-0E0,-1.5299022E-3,-1.4703363E-6,8.368503E-5,-5.534689E-4,-0E0,7.793664E-5,-4.8283386E-5,-1.2141819E-4,2.6897885E-4,-2.4755392E-4,-6.33809E-5,-0E0,2.6862783E-4,6.222232E-5,-5.7800073E-5,-0E0,1.5986038E-4,-3.0674745E-4,-0E0],"categories":[],"categories_nodes":[],"categories_segments":[],"categories_sizes":[],"default_left":[0,0,0,0,0,0,0,0,0,0,0,0,0,0,0,0,0,0,0,0,0,0,0,0,0,0,0,0,0,0,0,0,0,0,0,0,0,0,0,0,0,0,0,0,0,0,0,0,0,0,0,0,0,0,0,0,0],"id":13,"left_children":[1,3,5,7,9,11,13,15,17,19,21,23,25,27,29,31,33,35,37,39,41,43,45,-1,47,49,51,53,55,-1,-1,-1,-1,-1,-1,-1,-1,-1,-1,-1,-1,-1,-1,-1,-1,-1,-1,-1,-1,-1,-1,-1,-1,-1,-1,-1,-1],"loss_changes":[5.373111E-3,7.199965E-3,2.9977593E-3,7.5628366E-3,5.1803426E-3,3.8199066E-3,2.2705514E-3,3.9603454E-3,2.435205E-3,4.736403E-3,5.300021E-3,5.9170835E-4,7.7271793E-4,9.694003E-4,1.6079377E-4,1.3077395E-2,6.1172517E-3,1.3356055E-3,8.85984E-3,1.512852E-4,3.5232585E-4,6.3247457E-3,8.381753E-3,0E0,4.41405E-4,9.228303E-4,2.043221E-4,3.4573805E-4,3.6499684E-4,0E0,0E0,0E0,0E0,0E0,0E0,0E0,0E0,0E0,0E0,0E0,0E0,0E0,0E0,0E0,0E0,0E0,0E0,0E0,0E0,0E0,0E0,0E0,0E0,0E0,0E0,0E0,0E0],"parents":[2147483647,0,0,1,1,2,2,3,3,4,4,5,5,6,6,7,7,8,8,9,9,10,10,11,11,12,12,13,13,14,14,15,15,16,16,17,17,18,18,19,19,20,20,21,21,22,22,24,24,25,25,26,26,27,27,28,28],"right_children":[2,4,6,8,10,12,14,16,18,20,22,24,26,28,30,32,34,36,38,40,42,44,46,-1,48,50,52,54,56,-1,-1,-1,-1,-1,-1,-1,-1,-1,-1,-1,-1,-1,-1,-1,-1,-1,-1,-1,-1,-1,-1,-1,-1,-1,-1,-1,-1],"split_conditions":[1.2029384E0,1.1292665E0,1.3428992E0,1.2806108E0,1.0958768E0,1.2912769E0,1.0024233E0,9.086705E-1,1.3753513E0,9.831054E-1,1.072698E0,1.1773032E0,1.3160532E0,1.0788815E0,1.0581774E0,9.37012E-1,9.6042866E-1,1.0321317E0,9.987557E-1,1.0827756E0,1.0338862E0,1.1803851E0,1.1397679E0,-0E0,1.2497158E0,1.0654277E0,1.0827756E0,1.3753513E0,9.058968E-1,-0E0,-5.066849E-4,-4.8108963E-5,8.3636594E-5,-5.1597897E-5,5.6292555E-7,-1.003073E-4,-3.7288477E-4,-0E0,-1.5299022E-3,-1.4703363E-6,8.368503E-5,-5.534689E-4,-0E0,7.793664E-5,-4.8283386E-5,-1.2141819E-4,2.6897885E-4,-2.4755392E-4,-6.33809E-5,-0E0,2.6862783E-4,6.222232E-5,-5.7800073E-5,-0E0,1.5986038E-4,-3.0674745E-4,-0E0],"split_indices":[1,1,2,2,2,2,5,1,2,2,0,2,2,0,0,0,0,0,0,0,2,1,2,0,2,0,0,2,5,0,0,0,0,0,0,0,0,0,0,0,0,0,0,0,0,0,0,0,0,0,0,0,0,0,0,0,0],"split_type":[0,0,0,0,0,0,0,0,0,0,0,0,0,0,0,0,0,0,0,0,0,0,0,0,0,0,0,0,0,0,0,0,0,0,0,0,0,0,0,0,0,0,0,0,0,0,0,0,0,0,0,0,0,0,0,0,0],"sum_hessian":[1.07576E5,1.06746E5,8.3E2,1.00859E5,5.887E3,6.46E2,1.84E2,1.0022E5,6.39E2,1.44E2,5.743E3,3.82E2,2.64E2,9E1,9.4E1,7.973E3,9.2247E4,6.12E2,2.7E1,7.1E1,7.3E1,4.952E3,7.91E2,2.6E1,3.56E2,1.22E2,1.42E2,4.7E1,4.3E1,3E0,9.1E1,2.969E3,5.004E3,6E3,8.6247E4,5.41E2,7.1E1,1.3E1,1.4E1,1.8E1,5.3E1,6.6E1,7E0,3.64E3,1.312E3,1.55E2,6.36E2,2.11E2,1.45E2,4.7E1,7.5E1,5.5E1,8.7E1,1.4E1,3.3E1,3.8E1,5E0],"tree_param":{"num_deleted":"0","num_feature":"6","num_nodes":"57","size_leaf_vector":"1"}},{"base_weights":[-2.590911E-5,-1.5477293E-4,2.082783E-4,-7.600778E-4,-7.363987E-5,8.9526986E-4,1.9066098E-4,-1.5185354E-3,5.604637E-4,6.8675024E-3,-8.509822E-5,-4.695971E-5,5.459147E-4,-4.8072347E-3,-9.554887E-4,1.0594034E-2,-1.2162669E-5,1.3894361E-2,-0E0,-1.5874306E-3,-4.3400025E-5,6.1708386E-4,-6.38586E-4,8.707474E-4,-5.9112906E-4,-2.9489596E-4,1.8023116E-4,7.099867E-5,-7.872392E-5,6.778738E-4,-1.3310362E-4,7.9545454E-5,-3.6251968E-5,7.810681E-4,-0E0,1.2347203E-4,-3.1016764E-4,-1.1179387E-4,6.9700823E-6,2.94E-5,-7.9609235E-6,-5.468786E-6,6.957621E-5,-4.7888447E-5,-1.7091454E-5,1.1665353E-4,3.527408E-5,-8.3599545E-5,-0E0],"categories":[],"categories_nodes":[],"categories_segments":[],"categories_sizes":[],"default_left":[0,0,0,0,0,0,0,0,0,0,0,0,0,0,0,0,0,0,0,0,0,0,0,0,0,0,0,0,0,0,0,0,0,0,0,0,0,0,0,0,0,0,0,0,0,0,0,0,0],"id":14,"left_children":[1,3,5,7,9,-1,11,13,15,17,19,21,23,25,27,29,31,33,35,37,39,41,43,45,47,-1,-1,-1,-1,-1,-1,-1,-1,-1,-1,-1,-1,-1,-1,-1,-1,-1,-1,-1,-1,-1,-1,-1,-1],"loss_changes":[3.2373383E-3,3.3340063E-3,9.992061E-3,8.18838E-3,4.2143995E-3,0E0,3.2436182E-3,9.010896E-3,1.7720226E-2,5.356466E-3,3.6846634E-3,8.842807E-3,5.691334E-3,6.9572814E-3,6.5609054E-3,7.6467227E-3,3.040104E-3,1.5216023E-3,9.239777E-4,1.9948543E-3,4.33245E-3,6.0486025E-3,1.0044551E-3,2.593114E-3,2.0760833E-3,0E0,0E0,0E0,0E0,0E0,0E0,0E0,0E0,0E0,0E0,0E0,0E0,0E0,0E0,0E0,0E0,0E0,0E0,0E0,0E0,0E0,0E0,0E0,0E0],"parents":[2147483647,0,0,1,1,2,2,3,3,4,4,6,6,7,7,8,8,9,9,10,10,11,11,12,12,13,13,14,14,15,15,16,16,17,17,18,18,19,19,20,20,21,21,22,22,23,23,24,24],"right_children":[2,4,6,8,10,-1,12,14,16,18,20,22,24,26,28,30,32,34,36,38,40,42,44,46,48,-1,-1,-1,-1,-1,-1,-1,-1,-1,-1,-1,-1,-1,-1,-1,-1,-1,-1,-1,-1,-1,-1,-1,-1],"split_conditions":[1.0653169E0,9.5704097E-1,9.193051E-1,1.0203947E0,6.557827E-1,8.9526986E-4,1.0192503E0,7.726589E-1,8.6549693E-1,9.947553E-1,2.1026287E1,9.976662E-1,1.2544315E0,9.4354886E-1,8.51921E-1,8.431346E-1,2.9928358E1,6.4372925E1,4.847855E1,1.0070231E0,9.784435E-1,1.1300538E0,7.8657365E-1,3.6000404E1,1.2912769E0,-2.9489596E-4,1.8023116E-4,7.099867E-5,-7.872392E-5,6.778738E-4,-1.3310362E-4,7.9545454E-5,-3.6251968E-5,7.810681E-4,-0E0,1.2347203E-4,-3.1016764E-4,-1.1179387E-4,6.9700823E-6,2.94E-5,-7.9609235E-6,-5.468786E-6,6.957621E-5,-4.7888447E-5,-1.7091454E-5,1.1665353E-4,3.527408E-5,-8.3599545E-5,-0E0],"split_indices":[2,0,0,5,2,0,0,2,0,0,3,0,2,0,2,2,3,3,3,2,0,2,5,3,2,0,0,0,0,0,0,0,0,0,0,0,0,0,0,0,0,0,0,0,0,0,0,0,0],"split_type":[0,0,0,0,0,0,0,0,0,0,0,0,0,0,0,0,0,0,0,0,0,0,0,0,0,0,0,0,0,0,0,0,0,0,0,0,0,0,0,0,0,0,0,0,0,0,0,0,0],"sum_hessian":[1.07449E5,6.9586E4,3.7863E4,8.078E3,6.1508E4,3.1E1,3.7832E4,5.179E3,2.899E3,8.6E1,6.1422E4,2.2501E4,1.5331E4,7.3E2,4.449E3,1.65E2,2.734E3,4.8E1,3.8E1,1.593E3,5.9829E4,1.0522E4,1.1979E4,1.1993E4,3.338E3,6.57E2,7.3E1,8.86E2,3.563E3,1.41E2,2.4E1,7.98E2,1.936E3,4.4E1,4E0,1.8E1,2E1,1.2E3,3.93E2,9.139E3,5.069E4,5.363E3,5.159E3,5.608E3,6.371E3,1.155E3,1.0838E4,1.159E3,2.179E3],"tree_param":{"num_deleted":"0","num_feature":"6","num_nodes":"49","size_leaf_vector":"1"}},{"base_weights":[8.69016E-6,2.651891E-5,-4.1080685E-3,-3.5431614E-5,9.6878613E-4,-1.7419193E-3,-8.840386E-3,-1.7030437E-5,-2.8827386E-3,-4.822686E-3,1.1631418E-3,-4.475902E-3,1.8998882E-4,-2.869987E-3,-5.771846E-4,8.4732746E-4,-7.2471616E-5,-6.971108E-3,-1.6279229E-3,-0E0,-4.602069E-4,1.7353056E-3,-3.497733E-5,-0E0,-2.3084153E-4,3.1378462E-3,-3.3247814E-4,-4.5385194E-4,-0E0,2.2725112E-4,2.731272E-5,-4.8687825E-6,1.0198582E-4,-0E0,-3.6907764E-4,-4.6990066E-5,-5.77643E-4,1.1818821E-4,-6.301055E-5,1.8396757E-5,1.550589E-4,-7.542535E-5,3.269322E-5,2.022025E-4,-0E0,-1.4892039E-4,8.7230666E-7],"categories":[],"categories_nodes":[],"categories_segments":[],"categories_sizes":[],"default_left":[0,0,0,0,0,0,0,0,0,0,0,0,0,0,0,0,0,0,0,0,0,0,0,0,0,0,0,0,0,0,0,0,0,0,0,0,0,0,0,0,0,0,0,0,0,0,0],"id":15,"left_children":[1,3,5,7,9,11,13,15,17,19,21,23,25,27,-1,29,31,33,35,37,-1,39,41,-1,-1,43,45,-1,-1,-1,-1,-1,-1,-1,-1,-1,-1,-1,-1,-1,-1,-1,-1,-1,-1,-1,-1],"loss_changes":[7.4757836E-3,6.337981E-3,3.8420153E-3,4.96392E-3,7.180083E-3,2.0562368E-3,6.559575E-4,4.698864E-3,2.25301E-3,4.9827243E-3,4.6252906E-3,1.0567228E-4,5.2800536E-4,7.9110096E-4,0E0,6.0556075E-3,4.7385585E-3,1.8560747E-4,2.0590439E-3,3.5330394E-4,0E0,7.972344E-3,2.1621846E-3,0E0,0E0,2.304574E-4,3.9614263E-4,0E0,0E0,0E0,0E0,0E0,0E0,0E0,0E0,0E0,0E0,0E0,0E0,0E0,0E0,0E0,0E0,0E0,0E0,0E0,0E0],"parents":[2147483647,0,0,1,1,2,2,3,3,4,4,5,5,6,6,7,7,8,8,9,9,10,10,11,11,12,12,13,13,15,15,16,16,17,17,18,18,19,19,21,21,22,22,25,25,26,26],"right_children":[2,4,6,8,10,12,14,16,18,20,22,24,26,28,-1,30,32,34,36,38,-1,40,42,-1,-1,44,46,-1,-1,-1,-1,-1,-1,-1,-1,-1,-1,-1,-1,-1,-1,-1,-1,-1,-1,-1,-1],"split_conditions":[1.2131557E0,1.1246113E0,1.3428992E0,1.2806108E0,1.0916177E0,1.2912769E0,5.894441E1,8.972217E-1,1.0497134E-2,9.831054E-1,1.1803851E0,1.1834728E0,1.3160532E0,1.6249623E-2,-5.771846E-4,2.340335E1,8.471892E1,3.7938484E1,1.3753513E0,3.003743E-2,-4.602069E-4,1.29199205E-2,1.2215283E0,-0E0,-2.3084153E-4,5.494068E-2,1.3288095E0,-4.5385194E-4,-0E0,2.2725112E-4,2.731272E-5,-4.8687825E-6,1.0198582E-4,-0E0,-3.6907764E-4,-4.6990066E-5,-5.77643E-4,1.1818821E-4,-6.301055E-5,1.8396757E-5,1.550589E-4,-7.542535E-5,3.269322E-5,2.022025E-4,-0E0,-1.4892039E-4,8.7230666E-7],"split_indices":[1,1,2,2,2,2,3,1,4,2,1,2,2,4,0,3,3,3,2,4,0,4,2,0,0,4,2,0,0,0,0,0,0,0,0,0,0,0,0,0,0,0,0,0,0,0,0],"split_type":[0,0,0,0,0,0,0,0,0,0,0,0,0,0,0,0,0,0,0,0,0,0,0,0,0,0,0,0,0,0,0,0,0,0,0,0,0,0,0,0,0,0,0,0,0,0,0],"sum_hessian":[1.07413E5,1.06975E5,4.38E2,1.00277E5,6.698E3,3.07E2,1.31E2,9.9669E4,6.08E2,2E2,6.498E3,1.48E2,1.59E2,5.3E1,7.8E1,5.898E3,9.3771E4,1.23E2,4.85E2,8.7E1,1.13E2,4.454E3,2.044E3,4E0,1.44E2,5.2E1,1.07E2,1.4E1,3.9E1,4.18E2,5.48E3,9.2726E4,1.045E3,1E1,1.13E2,4.64E2,2.1E1,5.2E1,3.5E1,2.263E3,2.191E3,6.97E2,1.347E3,4.5E1,7E0,4.5E1,6.2E1],"tree_param":{"num_deleted":"0","num_feature":"6","num_nodes":"47","size_leaf_vector":"1"}},{"base_weights":[-1.3252283E-6,1.5575552E-5,-2.2195044E-3,-5.286253E-5,7.817448E-4,-1.2151299E-3,-5.2338275E-3,-3.6952973E-5,-3.0924287E-3,-3.029097E-3,1.0996027E-3,-2.8464284E-3,1.0523369E-3,-2.2898428E-3,-1.0399186E-2,3.0031074E-3,-5.1016643E-5,-9.640725E-4,-4.671932E-3,-2.9048536E-4,-4.9399827E-3,3.5099788E-3,8.724682E-4,-0E0,-3.118432E-3,2.80042E-3,-0E0,-5.9707738E-3,1.1580746E-3,-1.2165801E-2,-0E0,7.788873E-4,4.6187753E-5,-4.090295E-6,6.382519E-5,-1.7996678E-4,3.5304278E-5,-2.5885357E-4,-0E0,6.189242E-5,-1.0549771E-4,-8.2284074E-5,-3.9954516E-4,1.795367E-3,1.4806408E-4,5.014226E-5,-8.830008E-5,-2.1708194E-4,-3.864784E-5,-0E0,1.7317808E-4,-4.3132568E-5,6.284666E-5,-0E0,-3.480203E-4,-0E0,1.3627291E-4,-0E0,-6.7900645E-4],"categories":[],"categories_nodes":[],"categories_segments":[],"categories_sizes":[],"default_left":[0,0,0,0,0,0,0,0,0,0,0,0,0,0,0,0,0,0,0,0,0,0,0,0,0,0,0,0,0,0,0,0,0,0,0,0,0,0,0,0,0,0,0,0,0,0,0,0,0,0,0,0,0,0,0,0,0,0,0],"id":16,"left_children":[1,3,5,7,9,11,13,15,17,19,21,23,25,27,29,31,33,35,37,39,41,43,45,-1,47,49,51,53,55,57,-1,-1,-1,-1,-1,-1,-1,-1,-1,-1,-1,-1,-1,-1,-1,-1,-1,-1,-1,-1,-1,-1,-1,-1,-1,-1,-1,-1,-1],"loss_changes":[4.247416E-3,5.6605246E-3,1.94332E-3,4.4117807E-3,1.05401315E-2,2.6569786E-3,1.5813578E-3,3.8619544E-3,1.0320866E-3,2.918947E-3,4.048571E-3,5.177283E-4,6.351649E-4,2.1888516E-3,1.3443232E-3,9.186509E-3,3.83783E-3,1.3085682E-3,7.950454E-4,9.045837E-4,2.7017277E-3,7.881404E-3,2.5171167E-3,0E0,6.2991586E-4,2.940668E-4,1.2841911E-4,6.7184074E-4,2.665899E-4,3.4530042E-4,0E0,0E0,0E0,0E0,0E0,0E0,0E0,0E0,0E0,0E0,0E0,0E0,0E0,0E0,0E0,0E0,0E0,0E0,0E0,0E0,0E0,0E0,0E0,0E0,0E0,0E0,0E0,0E0,0E0],"parents":[2147483647,0,0,1,1,2,2,3,3,4,4,5,5,6,6,7,7,8,8,9,9,10,10,11,11,12,12,13,13,14,14,15,15,16,16,17,17,18,18,19,19,20,20,21,21,22,22,24,24,25,25,26,26,27,27,28,28,29,29],"right_children":[2,4,6,8,10,12,14,16,18,20,22,24,26,28,30,32,34,36,38,40,42,44,46,-1,48,50,52,54,56,58,-1,-1,-1,-1,-1,-1,-1,-1,-1,-1,-1,-1,-1,-1,-1,-1,-1,-1,-1,-1,-1,-1,-1,-1,-1,-1,-1,-1,-1],"split_conditions":[1.2029384E0,1.106138E0,1.3428992E0,1.2806108E0,1.0730059E0,1.2912769E0,1.299863E0,7.5522476E-1,1.0592675E0,9.9557865E-1,3.1907572E1,1.1752547E0,1.3160532E0,1.3995916E0,8.471892E1,2.4693678E1,8.08606E1,1.0474532E0,1.3428992E0,1.118092E0,1.1152046E0,1.0916177E0,1.3995916E0,-0E0,1.2544315E0,3.6000404E1,6.5799706E1,4.1552834E1,4.7530064E1,5.063697E1,-0E0,7.788873E-4,4.6187753E-5,-4.090295E-6,6.382519E-5,-1.7996678E-4,3.5304278E-5,-2.5885357E-4,-0E0,6.189242E-5,-1.0549771E-4,-8.2284074E-5,-3.9954516E-4,1.795367E-3,1.4806408E-4,5.014226E-5,-8.830008E-5,-2.1708194E-4,-3.864784E-5,-0E0,1.7317808E-4,-4.3132568E-5,6.284666E-5,-0E0,-3.480203E-4,-0E0,1.3627291E-4,-0E0,-6.7900645E-4],"split_indices":[1,1,2,2,2,2,5,1,1,2,3,2,2,2,3,3,3,1,2,1,1,2,2,0,2,3,3,3,3,3,0,0,0,0,0,0,0,0,0,0,0,0,0,0,0,0,0,0,0,0,0,0,0,0,0,0,0,0,0],"split_type":[0,0,0,0,0,0,0,0,0,0,0,0,0,0,0,0,0,0,0,0,0,0,0,0,0,0,0,0,0,0,0,0,0,0,0,0,0,0,0,0,0,0,0,0,0,0,0,0,0,0,0,0,0,0,0,0,0,0,0],"sum_hessian":[1.07417E5,1.06561E5,8.56E2,9.7704E4,8.857E3,6.68E2,1.88E2,9.7229E4,4.75E2,6.57E2,8.2E3,4.14E2,2.54E2,1.33E2,5.5E1,4.14E2,9.6815E4,2.3E2,2.45E2,2.92E2,3.65E2,6.67E2,7.533E3,1.6E1,3.98E2,1.16E2,1.38E2,7.8E1,5.5E1,4.9E1,6E0,5.1E1,3.63E2,9.4695E4,2.12E3,1.12E2,1.18E2,2.29E2,1.6E1,1.29E2,1.63E2,1.92E2,1.73E2,7E0,6.6E2,7.215E3,3.18E2,2.33E2,1.65E2,1.6E1,1E2,1.1E2,2.8E1,7E0,7.1E1,1E1,4.5E1,8E0,4.1E1],"tree_param":{"num_deleted":"0","num_feature":"6","num_nodes":"59","size_leaf_vector":"1"}},{"base_weights":[6.3235243E-6,2.8365212E-3,-3.4514628E-6,-1.1004957E-2,7.2595915E-3,4.705799E-5,-5.8956764E-4,-9.215247E-4,-4.5259562E-4,1.1087585E-2,-4.318659E-3,7.1564125E-4,-4.4873736E-6,-1.010815E-3,1.9954443E-3,-1.1801719E-2,6.251125E-4,-0E0,1.1834324E-2,4.981805E-4,-1.2282123E-2,2.5014314E-3,3.718992E-4,-1.4369772E-4,2.1734223E-4,-3.3074268E-3,-6.8731536E-4,-1.9004808E-3,2.8230567E-3,-8.868729E-4,-0E0,-0E0,1.3636953E-4,6.239453E-4,-0E0,-0E0,1.4976056E-4,-0E0,-6.542333E-4,5.09656E-5,3.1862952E-4,-4.66513E-5,4.3038202E-5,-2.6200058E-5,-5.0735853E-6,5.77694E-6,6.369315E-5,-2.628518E-4,1.0069989E-4,1.3186129E-4,-4.5796667E-5,-0E0,-4.8960885E-4,3.2425503E-4,7.679421E-5],"categories":[],"categories_nodes":[],"categories_segments":[],"categories_sizes":[],"default_left":[0,0,0,0,0,0,0,0,0,0,0,0,0,0,0,0,0,0,0,0,0,0,0,0,0,0,0,0,0,0,0,0,0,0,0,0,0,0,0,0,0,0,0,0,0,0,0,0,0,0,0,0,0,0,0],"id":17,"left_children":[1,3,5,7,9,11,13,-1,15,17,19,21,23,25,27,29,31,-1,33,35,37,39,41,43,45,47,49,51,53,-1,-1,-1,-1,-1,-1,-1,-1,-1,-1,-1,-1,-1,-1,-1,-1,-1,-1,-1,-1,-1,-1,-1,-1,-1,-1],"loss_changes":[3.2555496E-3,2.4500197E-2,3.2228974E-3,5.3905454E-3,1.4597397E-2,3.4616643E-3,9.321706E-3,0E0,1.675435E-3,2.8817728E-3,3.9463416E-3,4.119802E-3,2.8091348E-3,5.1488555E-3,3.8990914E-3,8.455722E-4,1.5036447E-4,0E0,1.9385964E-3,2.5970768E-4,2.7694274E-5,5.634437E-3,3.8658245E-3,8.4174506E-4,3.6135914E-3,9.506125E-3,4.8374934E-3,3.259556E-3,3.8733399E-3,0E0,0E0,0E0,0E0,0E0,0E0,0E0,0E0,0E0,0E0,0E0,0E0,0E0,0E0,0E0,0E0,0E0,0E0,0E0,0E0,0E0,0E0,0E0,0E0,0E0,0E0],"parents":[2147483647,0,0,1,1,2,2,3,3,4,4,5,5,6,6,8,8,9,9,10,10,11,11,12,12,13,13,14,14,15,15,16,16,18,18,19,19,20,20,21,21,22,22,23,23,24,24,25,25,26,26,27,27,28,28],"right_children":[2,4,6,8,10,12,14,-1,16,18,20,22,24,26,28,30,32,-1,34,36,38,40,42,44,46,48,50,52,54,-1,-1,-1,-1,-1,-1,-1,-1,-1,-1,-1,-1,-1,-1,-1,-1,-1,-1,-1,-1,-1,-1,-1,-1,-1,-1],"split_conditions":[6.557827E-1,2.606509E-2,3.4256518E-2,4.4813366E1,5.894441E1,8.605899E-1,7.998653E1,-9.215247E-4,5.82684E-1,4.095386E-1,6.972809E-2,9.314531E-3,1.0673267E0,7.820626E-1,9.195518E-1,1.638045E-2,1.6107189E-2,-0E0,2.6654522E0,6.1789013E1,6.60227E1,8.479607E-1,1.3514569E-2,8.9075434E-1,2.4063176E-2,1.2040023E0,8.226794E-1,6.972809E-2,9.818788E-1,-8.868729E-4,-0E0,-0E0,1.3636953E-4,6.239453E-4,-0E0,-0E0,1.4976056E-4,-0E0,-6.542333E-4,5.09656E-5,3.1862952E-4,-4.66513E-5,4.3038202E-5,-2.6200058E-5,-5.0735853E-6,5.77694E-6,6.369315E-5,-2.628518E-4,1.0069989E-4,1.3186129E-4,-4.5796667E-5,-0E0,-4.8960885E-4,3.2425503E-4,7.679421E-5],"split_indices":[2,4,4,3,3,2,3,0,5,5,4,4,2,2,2,4,4,0,5,3,3,2,4,2,4,5,2,4,2,0,0,0,0,0,0,0,0,0,0,0,0,0,0,0,0,0,0,0,0,0,0,0,0,0,0],"split_type":[0,0,0,0,0,0,0,0,0,0,0,0,0,0,0,0,0,0,0,0,0,0,0,0,0,0,0,0,0,0,0,0,0,0,0,0,0,0,0,0,0,0,0,0,0,0,0,0,0,0,0,0,0,0,0],"sum_hessian":[1.07435E5,4.04E2,1.07031E5,9.2E1,3.12E2,9.8383E4,8.648E3,4.8E1,4.4E1,2.41E2,7.1E1,7.18E3,9.1203E4,7.47E3,1.178E3,1.1E1,3.3E1,9E0,2.32E2,3.7E1,3.4E1,1.111E3,6.069E3,5.6314E4,3.4889E4,8.83E2,6.587E3,1.85E2,9.93E2,7E0,4E0,1.2E1,2.1E1,2.21E2,1.1E1,8E0,2.9E1,4E0,3E1,8.23E2,2.88E2,1.598E3,4.471E3,5.39E3,5.0924E4,3.191E4,2.979E3,6.6E2,2.23E2,3.95E2,6.192E3,1.45E2,4E1,2.37E2,7.56E2],"tree_param":{"num_deleted":"0","num_feature":"6","num_nodes":"55","size_leaf_vector":"1"}},{"base_weights":[-2.1809941E-5,-2.353718E-7,-2.5783188E-3,-6.9749054E-5,7.546068E-4,-1.1321417E-3,-7.0522465E-3,-4.364719E-5,-1.992424E-3,-3.1765655E-3,1.0751873E-3,-3.0421172E-3,1.4575232E-3,-0E0,-4.2186878E-4,1.445008E-3,-6.451839E-5,-4.5712694E-4,-6.9907387E-3,-1.1434385E-3,-5.2320315E-3,5.348011E-3,8.4255106E-4,-3.8981994E-3,-2.504278E-4,3.071635E-3,-0E0,3.3613528E-6,6.94782E-4,5.090042E-4,-3.6878926E-6,3.0430925E-5,-1.16851E-4,-2.7383002E-4,-9.6618244E-4,1.05724E-5,-1.2239559E-4,-0E0,-3.6221807E-4,1.4982649E-4,5.6271814E-4,2.3018396E-5,1.8973016E-4,-0E0,-2.0433989E-4,-0E0,-6.01404E-5,-0E0,2.672026E-4,9.803305E-5,-3.203945E-5],"categories":[],"categories_nodes":[],"categories_segments":[],"categories_sizes":[],"default_left":[0,0,0,0,0,0,0,0,0,0,0,0,0,0,0,0,0,0,0,0,0,0,0,0,0,0,0,0,0,0,0,0,0,0,0,0,0,0,0,0,0,0,0,0,0,0,0,0,0,0,0],"id":18,"left_children":[1,3,5,7,9,11,13,15,17,19,21,23,25,-1,-1,27,29,31,33,35,37,39,41,43,45,47,49,-1,-1,-1,-1,-1,-1,-1,-1,-1,-1,-1,-1,-1,-1,-1,-1,-1,-1,-1,-1,-1,-1,-1,-1],"loss_changes":[5.6659635E-3,5.522075E-3,4.737857E-3,4.6984656E-3,1.0962939E-2,3.4669526E-3,2.0763502E-3,2.8579708E-3,8.898107E-3,2.0519407E-3,7.5462367E-3,5.5685686E-4,5.661722E-4,0E0,0E0,2.0337205E-2,7.997359E-3,2.133673E-3,2.6427917E-3,8.4275857E-4,2.7082888E-3,4.1244337E-3,8.393215E-3,2.4397066E-4,7.902828E-5,9.6204074E-4,2.0374893E-4,0E0,0E0,0E0,0E0,0E0,0E0,0E0,0E0,0E0,0E0,0E0,0E0,0E0,0E0,0E0,0E0,0E0,0E0,0E0,0E0,0E0,0E0,0E0,0E0],"parents":[2147483647,0,0,1,1,2,2,3,3,4,4,5,5,6,6,7,7,8,8,9,9,10,10,11,11,12,12,15,15,16,16,17,17,18,18,19,19,20,20,21,21,22,22,23,23,24,24,25,25,26,26],"right_children":[2,4,6,8,10,12,14,16,18,20,22,24,26,-1,-1,28,30,32,34,36,38,40,42,44,46,48,50,-1,-1,-1,-1,-1,-1,-1,-1,-1,-1,-1,-1,-1,-1,-1,-1,-1,-1,-1,-1,-1,-1,-1,-1],"split_conditions":[1.2029384E0,1.106138E0,1.3428992E0,1.2544315E0,1.0730059E0,1.2912769E0,1.0654277E0,8.25762E-1,1.0285631E0,1.118092E0,9.963546E-1,3.1589586E-2,1.3160532E0,-0E0,-4.2186878E-4,7.726589E-1,6.910923E-1,1.2806108E0,1.0967829E0,9.942833E-1,9.818788E-1,1.2331034E0,1.0788815E0,1.1752547E0,1.2131557E0,1.0654277E0,1.0788815E0,3.3613528E-6,6.94782E-4,5.090042E-4,-3.6878926E-6,3.0430925E-5,-1.16851E-4,-2.7383002E-4,-9.6618244E-4,1.05724E-5,-1.2239559E-4,-0E0,-3.6221807E-4,1.4982649E-4,5.6271814E-4,2.3018396E-5,1.8973016E-4,-0E0,-2.0433989E-4,-0E0,-6.01404E-5,-0E0,2.672026E-4,9.803305E-5,-3.203945E-5],"split_indices":[1,1,2,2,2,2,0,1,0,1,0,4,2,0,0,2,2,2,1,2,2,2,0,2,1,0,0,0,0,0,0,0,0,0,0,0,0,0,0,0,0,0,0,0,0,0,0,0,0,0,0],"split_type":[0,0,0,0,0,0,0,0,0,0,0,0,0,0,0,0,0,0,0,0,0,0,0,0,0,0,0,0,0,0,0,0,0,0,0,0,0,0,0,0,0,0,0,0,0,0,0,0,0,0,0],"sum_hessian":[1.07401E5,1.06542E5,8.59E2,9.768E4,8.862E3,6.67E2,1.92E2,9.6424E4,1.256E3,6.44E2,8.218E3,4.06E2,2.61E2,2.9E1,1.63E2,1.266E3,9.5158E4,9.77E2,2.79E2,3.49E2,2.95E2,4.01E2,7.817E3,2.83E2,1.23E2,1.18E2,1.43E2,1.148E3,1.18E2,7.5E1,9.5083E4,5.9E2,3.87E2,2.57E2,2.2E1,1.34E2,2.15E2,9E1,2.05E2,3E2,1.01E2,6.952E3,8.65E2,1.1E1,2.72E2,6.4E1,5.9E1,4.6E1,7.2E1,4.1E1,1.02E2],"tree_param":{"num_deleted":"0","num_feature":"6","num_nodes":"51","size_leaf_vector":"1"}},{"base_weights":[-5.8754663E-6,1.18927455E-5,-1.1864313E-3,-1.2615285E-5,1.2766104E-3,-4.0993155E-3,8.459056E-4,2.9439232E-5,-9.4761327E-4,6.689726E-3,4.2527114E-4,5.5869034E-4,-7.203822E-3,1.3276099E-3,-7.038276E-3,5.560684E-4,-1.5143617E-5,-9.046932E-3,-7.6606765E-4,-0E0,1.0060582E-2,-0E0,4.1469787E-3,5.6388234E-3,-2.1182738E-2,-1.2946553E-2,-2.7766482E-3,-9.956378E-4,2.523617E-3,-4.4856346E-4,-0E0,5.2735645E-6,8.569384E-5,-5.3347525E-4,-5.272605E-7,-1.0718665E-3,-0E0,2.7161118E-4,-4.4057528E-5,5.007057E-4,-3.053559E-4,5.809621E-4,-2.2881066E-4,4.9772312E-5,-5.9685794E-5,2.8373543E-4,-2.7752647E-4,3.0822914E-5,8.350539E-4,-1.2335116E-3,-0E0,-4.6795682E-4,-1.1602173E-3,1.1169489E-4,-2.184856E-4,-1.06194944E-4,1.7622359E-4,5.164735E-4,9.518014E-5],"categories":[],"categories_nodes":[],"categories_segments":[],"categories_sizes":[],"default_left":[0,0,0,0,0,0,0,0,0,0,0,0,0,0,0,0,0,0,0,0,0,0,0,0,0,0,0,0,0,0,0,0,0,0,0,0,0,0,0,0,0,0,0,0,0,0,0,0,0,0,0,0,0,0,0,0,0,0,0],"id":19,"left_children":[1,3,5,7,9,11,13,15,17,19,21,23,25,27,29,31,33,35,37,39,41,43,45,47,49,51,53,55,57,-1,-1,-1,-1,-1,-1,-1,-1,-1,-1,-1,-1,-1,-1,-1,-1,-1,-1,-1,-1,-1,-1,-1,-1,-1,-1,-1,-1,-1,-1],"loss_changes":[2.3732453E-3,3.4076865E-3,1.0262505E-2,4.172292E-3,8.917208E-3,1.09357145E-2,3.1183877E-3,2.3832982E-3,5.730009E-3,5.3141667E-3,3.0066022E-3,2.8607277E-2,9.552898E-3,2.7283127E-3,7.982531E-4,3.9487453E-3,3.4043635E-3,1.1639388E-2,2.7467671E-3,6.337786E-3,4.65863E-3,1.9438828E-3,2.9180588E-3,1.0758655E-2,4.0240493E-3,3.187092E-3,2.290712E-3,1.3310893E-3,1.8544625E-3,0E0,0E0,0E0,0E0,0E0,0E0,0E0,0E0,0E0,0E0,0E0,0E0,0E0,0E0,0E0,0E0,0E0,0E0,0E0,0E0,0E0,0E0,0E0,0E0,0E0,0E0,0E0,0E0,0E0,0E0],"parents":[2147483647,0,0,1,1,2,2,3,3,4,4,5,5,6,6,7,7,8,8,9,9,10,10,11,11,12,12,13,13,14,14,15,15,16,16,17,17,18,18,19,19,20,20,21,21,22,22,23,23,24,24,25,25,26,26,27,27,28,28],"right_children":[2,4,6,8,10,12,14,16,18,20,22,24,26,28,30,32,34,36,38,40,42,44,46,48,50,52,54,56,58,-1,-1,-1,-1,-1,-1,-1,-1,-1,-1,-1,-1,-1,-1,-1,-1,-1,-1,-1,-1,-1,-1,-1,-1,-1,-1,-1,-1,-1,-1],"split_conditions":[6.3280985E-2,4.7977805E-2,8.9755774E-1,3.509704E-2,9.138017E-1,8.899711E-1,1.3288095E0,8.627457E-1,8.6549693E-1,7.3890096E-1,1.0788815E0,8.226794E-1,7.94321E-1,5.0999355E-1,1.3995916E0,8.431346E-1,8.899711E-1,8.30373E-1,6.557827E-1,6.557827E-1,2.7723038E0,9.818788E-1,1.3428992E0,1.2501978E0,8.6456716E-1,9.7986305E-1,8.226794E-1,1.2044194E0,9.138017E-1,-4.4856346E-4,-0E0,5.2735645E-6,8.569384E-5,-5.3347525E-4,-5.272605E-7,-1.0718665E-3,-0E0,2.7161118E-4,-4.4057528E-5,5.007057E-4,-3.053559E-4,5.809621E-4,-2.2881066E-4,4.9772312E-5,-5.9685794E-5,2.8373543E-4,-2.7752647E-4,3.0822914E-5,8.350539E-4,-1.2335116E-3,-0E0,-4.6795682E-4,-1.1602173E-3,1.1169489E-4,-2.184856E-4,-1.06194944E-4,1.7622359E-4,5.164735E-4,9.518014E-5],"split_indices":[4,4,2,4,0,0,2,2,0,2,0,2,2,5,2,2,0,5,2,2,5,2,2,5,2,0,2,2,0,0,0,0,0,0,0,0,0,0,0,0,0,0,0,0,0,0,0,0,0,0,0,0,0,0,0,0,0,0,0],"split_type":[0,0,0,0,0,0,0,0,0,0,0,0,0,0,0,0,0,0,0,0,0,0,0,0,0,0,0,0,0,0,0,0,0,0,0,0,0,0,0,0,0,0,0,0,0,0,0,0,0,0,0,0,0,0,0,0,0,0,0],"sum_hessian":[1.07538E5,1.05861E5,1.677E3,1.03772E5,2.089E3,7.09E2,9.68E2,9.9204E4,4.568E3,2.67E2,1.822E3,2.71E2,4.38E2,9.25E2,4.3E1,7.917E3,9.1287E4,8.7E1,4.481E3,9.7E1,1.7E2,1.629E3,1.93E2,2.24E2,4.7E1,1.8E2,2.58E2,2.86E2,6.39E2,3.6E1,7E0,5.762E3,2.155E3,2.9E1,9.1258E4,4E1,4.7E1,6.5E1,4.416E3,4.1E1,5.6E1,1.6E2,1E1,8.75E2,7.54E2,1.76E2,1.7E1,1.61E2,6.3E1,4.1E1,6E0,1.42E2,3.8E1,4.7E1,2.11E2,2.47E2,3.9E1,3.4E1,6.05E2],"tree_param":{"num_deleted":"0","num_feature":"6","num_nodes":"59","size_leaf_vector":"1"}},{"base_weights":[-1.9587844E-5,-1.2060194E-6,-2.212591E-3,-7.625833E-5,8.205074E-4,-4.4900928E-5,-3.5351745E-3,-9.5925316E-5,2.516578E-3,-3.2350933E-3,1.1658809E-3,-2.369623E-4,8.451222E-4,-2.7575186E-3,-5.5628055E-4,2.821044E-3,-1.09054265E-4,3.0821522E-3,-5.9504376E-4,-6.368223E-4,-4.9921586E-3,4.1949423E-3,9.3274796E-4,-6.803211E-4,1.8304616E-3,-0E0,-3.0441307E-3,6.638462E-4,-6.161046E-5,-4.7917383E-6,-1.3013954E-4,-0E0,1.6930669E-4,6.016227E-5,-1.6426016E-4,-1.05661784E-4,7.9051824E-5,-1.1780623E-4,-6.406255E-4,9.381496E-5,4.6824044E-4,1.185481E-5,1.1545031E-4,-0E0,-6.925509E-5,-0E0,1.336068E-4,-2.715564E-5,4.613968E-5,-0E0,-1.6233597E-4],"categories":[],"categories_nodes":[],"categories_segments":[],"categories_sizes":[],"default_left":[0,0,0,0,0,0,0,0,0,0,0,0,0,0,0,0,0,0,0,0,0,0,0,0,0,0,0,0,0,0,0,0,0,0,0,0,0,0,0,0,0,0,0,0,0,0,0,0,0,0,0],"id":20,"left_children":[1,3,5,7,9,11,13,15,17,19,21,-1,23,25,-1,27,29,31,33,35,37,39,41,43,45,47,49,-1,-1,-1,-1,-1,-1,-1,-1,-1,-1,-1,-1,-1,-1,-1,-1,-1,-1,-1,-1,-1,-1,-1,-1],"loss_changes":[4.110359E-3,6.5004355E-3,2.073008E-3,4.745319E-3,1.2138393E-2,1.8599222E-3,1.5205764E-3,3.4478372E-3,1.4789221E-3,2.4881298E-3,5.233694E-3,0E0,5.3411536E-4,3.8400968E-4,0E0,1.8215341E-2,2.917794E-3,9.0555614E-4,6.040011E-4,1.019257E-3,6.20408E-3,5.463196E-3,7.0143524E-3,7.69563E-5,4.850182E-4,2.4110277E-5,3.1772908E-4,0E0,0E0,0E0,0E0,0E0,0E0,0E0,0E0,0E0,0E0,0E0,0E0,0E0,0E0,0E0,0E0,0E0,0E0,0E0,0E0,0E0,0E0,0E0,0E0],"parents":[2147483647,0,0,1,1,2,2,3,3,4,4,5,5,6,6,7,7,8,8,9,9,10,10,12,12,13,13,15,15,16,16,17,17,18,18,19,19,20,20,21,21,22,22,23,23,24,24,25,25,26,26],"right_children":[2,4,6,8,10,12,14,16,18,20,22,-1,24,26,-1,28,30,32,34,36,38,40,42,44,46,48,50,-1,-1,-1,-1,-1,-1,-1,-1,-1,-1,-1,-1,-1,-1,-1,-1,-1,-1,-1,-1,-1,-1,-1,-1],"split_conditions":[1.2029384E0,1.106138E0,1.0788815E0,8.674285E1,1.071164E0,1.2497158E0,1.3753513E0,7.5522476E-1,1.0729313E0,9.942833E-1,9.987557E-1,-2.369623E-4,4.4973316E1,4.0645336E1,-5.5628055E-4,8.6549693E-1,1.2806108E0,9.8377246E-1,1.0420047E0,1.0873066E0,1.0520655E0,1.2361349E0,1.0520655E0,1.0597404E0,1.0614932E0,1.1037413E0,1.1773032E0,6.638462E-4,-6.161046E-5,-4.7917383E-6,-1.3013954E-4,-0E0,1.6930669E-4,6.016227E-5,-1.6426016E-4,-1.05661784E-4,7.9051824E-5,-1.1780623E-4,-6.406255E-4,9.381496E-5,4.6824044E-4,1.185481E-5,1.1545031E-4,-0E0,-6.925509E-5,-0E0,1.336068E-4,-2.715564E-5,4.613968E-5,-0E0,-1.6233597E-4],"split_indices":[1,1,0,3,2,2,2,1,1,2,0,0,3,3,0,0,2,0,0,0,0,2,0,0,0,0,2,0,0,0,0,0,0,0,0,0,0,0,0,0,0,0,0,0,0,0,0,0,0,0,0],"split_type":[0,0,0,0,0,0,0,0,0,0,0,0,0,0,0,0,0,0,0,0,0,0,0,0,0,0,0,0,0,0,0,0,0,0,0,0,0,0,0,0,0,0,0,0,0,0,0,0,0,0,0],"sum_hessian":[1.07456E5,1.06609E5,8.47E2,9.7799E4,8.81E3,3.5E2,4.97E2,9.7102E4,6.97E2,6.68E2,8.142E3,7.3E1,2.77E2,4.64E2,3.3E1,4E2,9.6702E4,6.17E2,8E1,2.93E2,3.75E2,5.5E2,7.592E3,6.9E1,2.08E2,4.2E1,4.22E2,1.18E2,2.82E2,9.6233E4,4.69E2,2.7E1,5.9E2,2.6E1,5.4E1,2.03E2,9E1,2.91E2,8.4E1,3.94E2,1.56E2,5.092E3,2.5E3,1.3E1,5.6E1,4.3E1,1.65E2,2.3E1,1.9E1,2.1E1,4.01E2],"tree_param":{"num_deleted":"0","num_feature":"6","num_nodes":"51","size_leaf_vector":"1"}},{"base_weights":[-7.950768E-6,1.41882065E-5,-1.9477198E-3,-5.4076812E-5,8.2124927E-4,1.81857E-3,-2.6213708E-3,-7.226172E-5,2.2717374E-3,-4.935603E-4,1.3999512E-3,-0E0,4.8478497E-3,-4.278355E-3,-1.437626E-3,5.4956105E-4,-1.2896067E-4,2.7208896E-3,-7.910332E-4,-0E0,-7.282115E-4,2.1803621E-3,8.028186E-4,5.575112E-3,-0E0,-1.6781557E-3,-5.781485E-3,1.5645574E-3,-2.5178958E-3,-0E0,7.649944E-5,-9.415714E-5,-5.1246784E-6,-0E0,1.5795688E-4,-0E0,-2.1342326E-4,-2.5404732E-5,8.2284874E-5,-4.562247E-5,2.1478756E-5,1.273988E-4,-1.0929596E-4,-0E0,6.611878E-5,-0E0,4.236044E-4,-1.4000297E-4,-0E0,-4.4129523E-5,-3.3887132E-4,1.4251779E-4,-0E0,-2.7821655E-4,-7.2913455E-5],"categories":[],"categories_nodes":[],"categories_segments":[],"categories_sizes":[],"default_left":[0,0,0,0,0,0,0,0,0,0,0,0,0,0,0,0,0,0,0,0,0,0,0,0,0,0,0,0,0,0,0,0,0,0,0,0,0,0,0,0,0,0,0,0,0,0,0,0,0,0,0,0,0,0,0],"id":21,"left_children":[1,3,5,7,9,11,13,15,17,19,21,-1,23,25,27,29,31,33,35,37,39,41,43,45,-1,47,49,51,53,-1,-1,-1,-1,-1,-1,-1,-1,-1,-1,-1,-1,-1,-1,-1,-1,-1,-1,-1,-1,-1,-1,-1,-1,-1,-1],"loss_changes":[4.8135216E-3,5.93436E-3,3.294561E-3,3.9215037E-3,6.487311E-3,8.243739E-4,1.5719961E-3,3.3849268E-3,1.1814793E-3,3.1327445E-4,2.4447236E-3,0E0,1.9857811E-4,8.897851E-4,2.291655E-3,4.393968E-3,3.9437916E-3,8.170251E-4,5.247667E-4,6.795309E-4,4.2132876E-4,4.0224353E-3,1.4020763E-3,3.5278383E-4,0E0,2.1439337E-4,4.0873792E-4,5.1428284E-4,9.746854E-4,0E0,0E0,0E0,0E0,0E0,0E0,0E0,0E0,0E0,0E0,0E0,0E0,0E0,0E0,0E0,0E0,0E0,0E0,0E0,0E0,0E0,0E0,0E0,0E0,0E0,0E0],"parents":[2147483647,0,0,1,1,2,2,3,3,4,4,5,5,6,6,7,7,8,8,9,9,10,10,12,12,13,13,14,14,15,15,16,16,17,17,18,18,19,19,20,20,21,21,22,22,23,23,25,25,26,26,27,27,28,28],"right_children":[2,4,6,8,10,12,14,16,18,20,22,-1,24,26,28,30,32,34,36,38,40,42,44,46,-1,48,50,52,54,-1,-1,-1,-1,-1,-1,-1,-1,-1,-1,-1,-1,-1,-1,-1,-1,-1,-1,-1,-1,-1,-1,-1,-1,-1,-1],"split_conditions":[1.1955665E0,1.106138E0,9.866452E-3,8.674285E1,9.594954E-3,9.463362E-1,1.9272303E-2,9.086705E-1,1.0788038E0,4.5282425E1,4.9555653E1,-0E0,6.2006596E1,1.2029384E0,4.817116E1,1.0203947E0,9.151159E-1,1.4607693E-2,3.863204E-2,1.1606978E0,6.765551E1,3.7644133E-2,7.103811E-1,7.1801906E-3,-0E0,5.2534527E1,1.1797092E-2,1.2131557E0,1.2029384E0,-0E0,7.649944E-5,-9.415714E-5,-5.1246784E-6,-0E0,1.5795688E-4,-0E0,-2.1342326E-4,-2.5404732E-5,8.2284874E-5,-4.562247E-5,2.1478756E-5,1.273988E-4,-1.0929596E-4,-0E0,6.611878E-5,-0E0,4.236044E-4,-1.4000297E-4,-0E0,-4.4129523E-5,-3.3887132E-4,1.4251779E-4,-0E0,-2.7821655E-4,-7.2913455E-5],"split_indices":[1,1,4,3,4,5,4,1,1,3,3,0,3,1,3,5,1,4,4,1,3,4,5,4,0,3,4,1,1,0,0,0,0,0,0,0,0,0,0,0,0,0,0,0,0,0,0,0,0,0,0,0,0,0,0],"split_type":[0,0,0,0,0,0,0,0,0,0,0,0,0,0,0,0,0,0,0,0,0,0,0,0,0,0,0,0,0,0,0,0,0,0,0,0,0,0,0,0,0,0,0,0,0,0,0,0,0,0,0,0,0,0,0],"sum_hessian":[1.07583E5,1.06319E5,1.264E3,9.7914E4,8.405E3,1.69E2,1.095E3,9.7198E4,7.16E2,2.516E3,5.889E3,1.11E2,5.8E1,4.2E2,6.75E2,7.974E3,8.9224E4,6.53E2,6.3E1,7.7E2,1.746E3,2.479E3,3.41E3,5E1,8E0,1.79E2,2.41E2,1.54E2,5.21E2,5.069E3,2.905E3,1.269E3,8.7955E4,8.7E1,5.66E2,3.3E1,3E1,5.75E2,1.95E2,1.581E3,1.65E2,2.308E3,1.71E2,1.352E3,2.058E3,2.4E1,2.6E1,9.1E1,8.8E1,5.8E1,1.83E2,1.09E2,4.5E1,1.09E2,4.12E2],"tree_param":{"num_deleted":"0","num_feature":"6","num_nodes":"55","size_leaf_vector":"1"}},{"base_weights":[-5.024772E-6,7.33639E-6,-3.3325297E-3,-5.1613762E-5,6.4559607E-4,-0E0,-5.242331E-3,6.515564E-4,-1.0100427E-4,4.504365E-3,4.5880294E-4,1.484253E-3,-6.2981932E-3,-5.3455574E-3,-0E0,8.6079637E-4,-6.7032836E-3,-9.725868E-4,-2.0317004E-5,1.6900944E-3,6.0291546E-3,-4.076921E-4,7.888543E-4,2.1495034E-3,-0E0,-0E0,-4.210191E-4,-2.741472E-4,-0E0,-2.738619E-5,9.8230514E-5,-0E0,-3.5304445E-4,-5.949397E-5,1.3234837E-4,2.6273658E-5,-4.564059E-6,-0E0,1.5963588E-4,3.9355442E-4,1.14646255E-5,-1.0204127E-4,1.8104847E-5,5.1847706E-5,-4.931417E-5,1.4026352E-4,-0E0],"categories":[],"categories_nodes":[],"categories_segments":[],"categories_sizes":[],"default_left":[0,0,0,0,0,0,0,0,0,0,0,0,0,0,0,0,0,0,0,0,0,0,0,0,0,0,0,0,0,0,0,0,0,0,0,0,0,0,0,0,0,0,0,0,0,0,0],"id":22,"left_children":[1,3,5,7,9,11,13,15,17,19,21,23,25,27,-1,29,31,33,35,37,39,41,43,45,-1,-1,-1,-1,-1,-1,-1,-1,-1,-1,-1,-1,-1,-1,-1,-1,-1,-1,-1,-1,-1,-1,-1],"loss_changes":[4.7563133E-3,4.090026E-3,2.8867424E-3,3.3459044E-3,6.13362E-3,1.2714629E-3,1.6096607E-4,9.107522E-3,6.3446956E-3,9.343531E-4,2.5557037E-3,1.5453249E-4,5.681814E-4,7.5449236E-5,0E0,9.679565E-3,5.930406E-4,5.881262E-3,3.209033E-3,4.1552042E-4,1.7093364E-3,3.116671E-3,2.8502662E-3,2.3459672E-4,0E0,0E0,0E0,0E0,0E0,0E0,0E0,0E0,0E0,0E0,0E0,0E0,0E0,0E0,0E0,0E0,0E0,0E0,0E0,0E0,0E0,0E0,0E0],"parents":[2147483647,0,0,1,1,2,2,3,3,4,4,5,5,6,6,7,7,8,8,9,9,10,10,11,11,12,12,13,13,15,15,16,16,17,17,18,18,19,19,20,20,21,21,22,22,23,23],"right_children":[2,4,6,8,10,12,14,16,18,20,22,24,26,28,-1,30,32,34,36,38,40,42,44,46,-1,-1,-1,-1,-1,-1,-1,-1,-1,-1,-1,-1,-1,-1,-1,-1,-1,-1,-1,-1,-1,-1,-1],"split_conditions":[1.2131557E0,1.106138E0,1.0788815E0,8.998487E-1,9.9658E-1,1.2896284E0,3.4130237E0,1.0290757E0,9.624163E-1,1.0497134E-2,9.252907E-3,1.0760047E0,9.252907E-3,9.495925E-2,-0E0,9.37012E-1,8.026698E-1,1.0143512E0,9.488999E-1,1.1355149E0,1.1355149E0,1.018852E0,1.1955665E0,4.9943242E-2,-0E0,-0E0,-4.210191E-4,-2.741472E-4,-0E0,-2.738619E-5,9.8230514E-5,-0E0,-3.5304445E-4,-5.949397E-5,1.3234837E-4,2.6273658E-5,-4.564059E-6,-0E0,1.5963588E-4,3.9355442E-4,1.14646255E-5,-1.0204127E-4,1.8104847E-5,5.1847706E-5,-4.931417E-5,1.4026352E-4,-0E0],"split_indices":[1,1,0,1,0,5,5,0,0,4,4,0,4,4,0,0,1,1,1,1,1,0,1,4,0,0,0,0,0,0,0,0,0,0,0,0,0,0,0,0,0,0,0,0,0,0,0],"split_type":[0,0,0,0,0,0,0,0,0,0,0,0,0,0,0,0,0,0,0,0,0,0,0,0,0,0,0,0,0,0,0,0,0,0,0,0,0,0,0,0,0,0,0,0,0,0,0],"sum_hessian":[1.0755E5,1.07123E5,4.27E2,9.7923E4,9.2E3,1.5E2,2.77E2,6.293E3,9.163E4,3.99E2,8.801E3,1.26E2,2.4E1,2.72E2,5E0,6.133E3,1.6E2,7.658E3,8.3972E4,1.64E2,2.35E2,2.344E3,6.457E3,9.3E1,3.3E1,3E0,2.1E1,2.61E2,1.1E1,2.655E3,3.478E3,4E0,1.56E2,7.251E3,4.07E2,9.499E3,7.4473E4,7.8E1,8.6E1,1.65E2,7E1,7.92E2,1.552E3,5.715E3,7.42E2,8.4E1,9E0],"tree_param":{"num_deleted":"0","num_feature":"6","num_nodes":"47","size_leaf_vector":"1"}},{"base_weights":[-1.2977523E-5,7.758532E-6,-1.8659809E-3,-4.4553468E-5,1.0846154E-3,1.9157439E-3,-2.5691327E-3,2.7393878E-3,-5.676376E-5,-0E0,2.047039E-3,-0E0,3.24394E-3,-2.3551034E-2,-2.214375E-3,-1.4449709E-2,7.7861E-3,-4.7832644E-3,-4.207722E-5,2.6867162E-3,-2.3187697E-4,4.8978277E-3,1.4360495E-3,7.873514E-3,-0E0,-0E0,-1.4747118E-3,-3.8152358E-3,-9.620198E-4,-8.741665E-4,6.6285004E-4,5.383114E-4,-3.781004E-4,7.3066464E-4,-4.0299902E-4,1.08894405E-4,-2.933897E-6,1.6196191E-4,-0E0,7.716463E-6,-5.1711657E-5,3.8828257E-5,3.6848674E-4,3.4860084E-5,2.1188309E-4,-0E0,5.821899E-4,1.3190693E-5,-1.0693468E-5,-5.7435333E-5,-2.7200166E-4,3.374078E-5,-1.0263043E-4],"categories":[],"categories_nodes":[],"categories_segments":[],"categories_sizes":[],"default_left":[0,0,0,0,0,0,0,0,0,0,0,0,0,0,0,0,0,0,0,0,0,0,0,0,0,0,0,0,0,0,0,0,0,0,0,0,0,0,0,0,0,0,0,0,0,0,0,0,0,0,0,0,0],"id":23,"left_children":[1,3,5,7,9,11,13,15,17,19,21,-1,23,25,27,29,31,33,35,37,39,41,43,45,47,-1,-1,49,51,-1,-1,-1,-1,-1,-1,-1,-1,-1,-1,-1,-1,-1,-1,-1,-1,-1,-1,-1,-1,-1,-1,-1,-1],"loss_changes":[4.3128026E-3,6.084598E-3,3.3728965E-3,3.170564E-3,5.109532E-3,5.5419264E-4,5.335849E-3,3.4666E-2,6.511199E-3,1.6255977E-3,3.931811E-3,0E0,1.6005341E-3,1.4886335E-3,1.6397312E-3,8.050954E-3,1.4992686E-2,1.7957542E-2,3.4906075E-3,4.115029E-4,7.6212804E-4,3.600969E-3,4.0409225E-3,1.413269E-3,4.561693E-6,0E0,0E0,1.193549E-3,1.2637865E-3,0E0,0E0,0E0,0E0,0E0,0E0,0E0,0E0,0E0,0E0,0E0,0E0,0E0,0E0,0E0,0E0,0E0,0E0,0E0,0E0,0E0,0E0,0E0,0E0],"parents":[2147483647,0,0,1,1,2,2,3,3,4,4,5,5,6,6,7,7,8,8,9,9,10,10,12,12,13,13,14,14,15,15,16,16,17,17,18,18,19,19,20,20,21,21,22,22,23,23,24,24,27,27,28,28],"right_children":[2,4,6,8,10,12,14,16,18,20,22,-1,24,26,28,30,32,34,36,38,40,42,44,46,48,-1,-1,50,52,-1,-1,-1,-1,-1,-1,-1,-1,-1,-1,-1,-1,-1,-1,-1,-1,-1,-1,-1,-1,-1,-1,-1,-1],"split_conditions":[1.1955665E0,1.1355149E0,9.866452E-3,7.5522476E-1,1.29199205E-2,1.0654277E0,1.0352632E0,2.606509E-2,8.6549693E-1,1.0026602E0,1.0163654E0,-0E0,1.0760047E0,1.9085554E-2,1.9272303E-2,9.4354886E-1,6.414673E1,3.1589586E-2,9.0547246E-1,1.1501921E0,1.0394752E0,1.0048685E0,1.0827756E0,4.6574745E1,1.2131557E0,-0E0,-1.4747118E-3,1.2029384E0,5.4718525E1,-8.741665E-4,6.6285004E-4,5.383114E-4,-3.781004E-4,7.3066464E-4,-4.0299902E-4,1.08894405E-4,-2.933897E-6,1.6196191E-4,-0E0,7.716463E-6,-5.1711657E-5,3.8828257E-5,3.6848674E-4,3.4860084E-5,2.1188309E-4,-0E0,5.821899E-4,1.3190693E-5,-1.0693468E-5,-5.7435333E-5,-2.7200166E-4,3.374078E-5,-1.0263043E-4],"split_indices":[1,1,4,1,4,0,0,4,0,0,0,0,0,4,4,0,3,4,0,1,0,0,0,3,1,0,0,1,3,0,0,0,0,0,0,0,0,0,0,0,0,0,0,0,0,0,0,0,0,0,0,0,0],"split_type":[0,0,0,0,0,0,0,0,0,0,0,0,0,0,0,0,0,0,0,0,0,0,0,0,0,0,0,0,0,0,0,0,0,0,0,0,0,0,0,0,0,0,0,0,0,0,0,0,0,0,0,0,0],"sum_hessian":[1.07405E5,1.06164E5,1.241E3,1.01158E5,5.006E3,1.72E2,1.069E3,4.05E2,1.00753E5,2.382E3,2.624E3,6E1,1.12E2,1.2E1,1.057E3,8.7E1,3.18E2,2.9E2,1.00463E5,2.08E2,2.174E3,4.33E2,2.191E3,4.4E1,6.8E1,3E0,9E0,4.28E2,6.29E2,8.2E1,5E0,2.72E2,4.6E1,3.7E1,2.53E2,7E2,9.9763E4,1.82E2,2.6E1,1.384E3,7.9E2,1.78E2,2.55E2,1.763E3,4.28E2,1.4E1,3E1,5.6E1,1.2E1,1.86E2,2.42E2,2.15E2,4.14E2],"tree_param":{"num_deleted":"0","num_feature":"6","num_nodes":"53","size_leaf_vector":"1"}},{"base_weights":[-1.0207457E-5,1.4028782E-5,-1.2752125E-3,-3.861096E-6,1.1694375E-3,-2.2695912E-3,2.3121515E-3,3.991261E-5,-9.6178206E-4,5.40405E-3,4.6494114E-4,-4.227032E-3,-3.2068396E-4,9.696531E-3,-2.2231396E-4,9.387711E-3,3.285873E-5,-6.7771594E-3,-8.2563184E-4,1.0444227E-2,-0E0,-8.2998606E-4,2.2154811E-3,-1.2961067E-3,-9.360745E-3,-1.8219386E-3,1.5520788E-3,1.11581655E-2,-7.0777074E-5,1.4382451E-3,-1.9840284E-3,9.931547E-4,-4.8256433E-4,-2.843022E-5,3.974624E-6,-8.64028E-4,6.214939E-5,-5.8675494E-5,3.090029E-5,6.262034E-4,-0E0,2.4323177E-4,-4.8814618E-4,4.0766587E-5,-1.3108354E-4,-0E0,1.2608155E-4,-1.262792E-4,1.6586478E-4,-0E0,-5.099193E-4,5.6394576E-5,-1.6577786E-4,1.8508501E-4,1.8927029E-6,9.837222E-4,3.5208635E-4,-4.6888777E-6,3.3292532E-4,-5.3767476E-4,-0E0],"categories":[],"categories_nodes":[],"categories_segments":[],"categories_sizes":[],"default_left":[0,0,0,0,0,0,0,0,0,0,0,0,0,0,0,0,0,0,0,0,0,0,0,0,0,0,0,0,0,0,0,0,0,0,0,0,0,0,0,0,0,0,0,0,0,0,0,0,0,0,0,0,0,0,0,0,0,0,0,0,0],"id":24,"left_children":[1,3,5,7,9,11,13,15,17,19,21,23,25,27,29,31,33,35,37,39,41,43,45,47,49,51,53,55,-1,57,59,-1,-1,-1,-1,-1,-1,-1,-1,-1,-1,-1,-1,-1,-1,-1,-1,-1,-1,-1,-1,-1,-1,-1,-1,-1,-1,-1,-1,-1,-1],"loss_changes":[3.4212393E-3,2.2947588E-3,7.4849734E-3,4.440044E-3,4.45828E-3,5.8956314E-3,9.072086E-3,5.589347E-3,2.900788E-3,5.981304E-3,3.4771499E-3,1.1034638E-2,2.45051E-3,2.9553138E-3,9.760172E-4,1.39770955E-2,2.7277933E-3,9.122491E-3,2.3378152E-3,1.5245182E-3,5.15885E-3,2.5823542E-3,6.568702E-4,2.912718E-3,2.9232744E-3,2.460714E-3,7.781779E-4,1.2213634E-3,0E0,1.7207727E-3,4.140362E-3,0E0,0E0,0E0,0E0,0E0,0E0,0E0,0E0,0E0,0E0,0E0,0E0,0E0,0E0,0E0,0E0,0E0,0E0,0E0,0E0,0E0,0E0,0E0,0E0,0E0,0E0,0E0,0E0,0E0,0E0],"parents":[2147483647,0,0,1,1,2,2,3,3,4,4,5,5,6,6,7,7,8,8,9,9,10,10,11,11,12,12,13,13,14,14,15,15,16,16,17,17,18,18,19,19,20,20,21,21,22,22,23,23,24,24,25,25,26,26,27,27,29,29,30,30],"right_children":[2,4,6,8,10,12,14,16,18,20,22,24,26,28,30,32,34,36,38,40,42,44,46,48,50,52,54,56,-1,58,60,-1,-1,-1,-1,-1,-1,-1,-1,-1,-1,-1,-1,-1,-1,-1,-1,-1,-1,-1,-1,-1,-1,-1,-1,-1,-1,-1,-1,-1,-1],"split_conditions":[5.8740746E-2,4.7977805E-2,1.2600197E0,3.509704E-2,9.138017E-1,9.7395456E-1,9.138017E-1,8.6549693E-1,8.6549693E-1,5.2055527E-2,6.2006596E1,4.1552834E1,7.70079E1,5.9128677E1,3.8548077E1,3.1589586E-2,9.5816714E-1,8.30373E-1,7.581883E1,1.09238E0,4.241893E1,2.8492237E1,9.70685E-1,9.495925E-2,2.2860599E-1,9.9680704E-1,6.972809E-2,1.4481605E0,-7.0777074E-5,2.128681E0,7.47655E1,9.931547E-4,-4.8256433E-4,-2.843022E-5,3.974624E-6,-8.64028E-4,6.214939E-5,-5.8675494E-5,3.090029E-5,6.262034E-4,-0E0,2.4323177E-4,-4.8814618E-4,4.0766587E-5,-1.3108354E-4,-0E0,1.2608155E-4,-1.262792E-4,1.6586478E-4,-0E0,-5.099193E-4,5.6394576E-5,-1.6577786E-4,1.8508501E-4,1.8927029E-6,9.837222E-4,3.5208635E-4,-4.6888777E-6,3.3292532E-4,-5.3767476E-4,-0E0],"split_indices":[4,4,5,4,0,0,0,0,0,4,3,3,3,3,3,4,0,5,3,5,3,3,0,4,5,0,4,5,0,5,3,0,0,0,0,0,0,0,0,0,0,0,0,0,0,0,0,0,0,0,0,0,0,0,0,0,0,0,0,0,0],"split_type":[0,0,0,0,0,0,0,0,0,0,0,0,0,0,0,0,0,0,0,0,0,0,0,0,0,0,0,0,0,0,0,0,0,0,0,0,0,0,0,0,0,0,0,0,0,0,0,0,0,0,0,0,0,0,0,0,0,0,0,0,0],"sum_hessian":[1.07475E5,1.05378E5,2.097E3,1.03687E5,1.691E3,1.664E3,4.33E2,9.9057E4,4.63E3,2.2E2,1.471E3,8.04E2,8.6E2,1.2E2,3.13E2,6.3E1,9.8994E4,8.8E1,4.542E3,1.13E2,1.07E2,8.13E2,6.58E2,5.25E2,2.79E2,5.07E2,3.53E2,1.14E2,6E0,1.32E2,1.81E2,4.4E1,1.9E1,6.968E3,9.2026E4,4.3E1,4.5E1,3.716E3,8.26E2,8.8E1,2.5E1,7.2E1,3.5E1,3.95E2,4.18E2,4.7E1,6.11E2,4.32E2,9.3E1,1.6E1,2.63E2,1.48E2,3.59E2,1.18E2,2.35E2,2.8E1,8.6E1,8.8E1,4.4E1,4.1E1,1.4E2],"tree_param":{"num_deleted":"0","num_feature":"6","num_nodes":"61","size_leaf_vector":"1"}},{"base_weights":[-1.9255383E-6,3.828371E-5,-4.8831676E-4,1.1853092E-2,3.130544E-5,3.9066067E-3,-6.2987837E-4,-5.0109946E-3,2.5576597E-2,-4.8498623E-4,6.961118E-5,9.398278E-3,-8.651713E-3,-3.5116898E-3,-2.6254304E-4,-0E0,-1.0316682E-2,3.0216068E-2,-0E0,-6.944096E-3,-3.3184903E-4,1.3317646E-2,6.321617E-5,2.0546341E-2,2.2502583E-3,-0E0,-1.2957582E-2,-1.13325705E-5,-5.7724146E-3,5.4073795E-3,-4.8302347E-4,-6.1954587E-4,-0E0,4.0943042E-4,2.1960663E-3,-8.0451043E-4,7.17797E-4,5.242625E-4,-3.0110765E-5,7.6367863E-4,-0E0,2.5338717E-5,4.408211E-8,1.8935921E-3,4.506721E-4,-0E0,4.137149E-4,-0E0,-7.2564685E-4,3.9228224E-5,-5.2316417E-4,-5.769968E-4,-1.6138391E-4,9.550356E-4,8.7030676E-5,-6.660595E-4,-1.5077932E-5],"categories":[],"categories_nodes":[],"categories_segments":[],"categories_sizes":[],"default_left":[0,0,0,0,0,0,0,0,0,0,0,0,0,0,0,0,0,0,0,0,0,0,0,0,0,0,0,0,0,0,0,0,0,0,0,0,0,0,0,0,0,0,0,0,0,0,0,0,0,0,0,0,0,0,0,0,0],"id":25,"left_children":[1,3,5,7,9,11,13,15,17,19,21,23,25,27,29,-1,31,33,-1,35,37,39,41,43,45,-1,47,49,51,53,55,-1,-1,-1,-1,-1,-1,-1,-1,-1,-1,-1,-1,-1,-1,-1,-1,-1,-1,-1,-1,-1,-1,-1,-1,-1,-1],"loss_changes":[2.1460955E-3,6.9766473E-3,4.8965137E-3,1.3756444E-2,1.9162152E-3,1.6707849E-2,8.253408E-3,1.0943075E-3,3.459245E-3,5.854739E-3,6.4837337E-3,1.1459883E-2,1.9618096E-3,6.472349E-3,8.590953E-3,0E0,2.4590886E-4,2.2785477E-3,0E0,2.7483355E-2,1.8083338E-2,1.1359961E-3,2.5011804E-3,7.358538E-3,2.308358E-3,0E0,7.4138213E-4,4.037354E-3,6.176645E-3,1.0686235E-2,1.4964732E-2,0E0,0E0,0E0,0E0,0E0,0E0,0E0,0E0,0E0,0E0,0E0,0E0,0E0,0E0,0E0,0E0,0E0,0E0,0E0,0E0,0E0,0E0,0E0,0E0,0E0,0E0],"parents":[2147483647,0,0,1,1,2,2,3,3,4,4,5,5,6,6,7,7,8,8,9,9,10,10,11,11,12,12,13,13,14,14,16,16,17,17,19,19,20,20,21,21,22,22,23,23,24,24,26,26,27,27,28,28,29,29,30,30],"right_children":[2,4,6,8,10,12,14,16,18,20,22,24,26,28,30,-1,32,34,-1,36,38,40,42,44,46,-1,48,50,52,54,56,-1,-1,-1,-1,-1,-1,-1,-1,-1,-1,-1,-1,-1,-1,-1,-1,-1,-1,-1,-1,-1,-1,-1,-1,-1,-1],"split_conditions":[3.509704E-2,8.6549693E-1,6.557827E-1,7.3890096E-1,9.5704097E-1,5.894441E1,7.820626E-1,3.2187668E1,3.1061077E-2,6.557827E-1,6.557827E-1,8.6549693E-1,6.972809E-2,3.9326504E1,8.09734E-1,-0E0,7.0692325E-1,8.031428E-1,-0E0,2.813708E-2,7.254718E-1,3.1589586E-2,9.784435E-1,2.340335E1,9.274909E-1,-0E0,6.60227E1,1.0054114E0,5.219539E1,8.899711E-1,8.6549693E-1,-6.1954587E-4,-0E0,4.0943042E-4,2.1960663E-3,-8.0451043E-4,7.17797E-4,5.242625E-4,-3.0110765E-5,7.6367863E-4,-0E0,2.5338717E-5,4.408211E-8,1.8935921E-3,4.506721E-4,-0E0,4.137149E-4,-0E0,-7.2564685E-4,3.9228224E-5,-5.2316417E-4,-5.769968E-4,-1.6138391E-4,9.550356E-4,8.7030676E-5,-6.660595E-4,-1.5077932E-5],"split_indices":[4,0,2,2,0,3,2,3,4,2,2,0,4,3,2,0,2,2,0,4,2,4,0,3,0,0,3,0,3,0,0,0,0,0,0,0,0,0,0,0,0,0,0,0,0,0,0,0,0,0,0,0,0,0,0,0,0],"split_type":[0,0,0,0,0,0,0,0,0,0,0,0,0,0,0,0,0,0,0,0,0,0,0,0,0,0,0,0,0,0,0,0,0,0,0,0,0,0,0,0,0,0,0,0,0,0,0,0,0,0,0,0,0,0,0,0,0],"sum_hessian":[1.0743E5,9.9038E4,8.392E3,4.9E1,9.8989E4,2.39E2,8.153E3,1.9E1,3E1,6.656E3,9.2333E4,1.72E2,6.7E1,8.9E2,7.263E3,5E0,1.4E1,2.5E1,5E0,1.38E2,6.518E3,3.6E1,9.2297E4,6.1E1,1.11E2,2.6E1,4.1E1,3.67E2,5.23E2,2.54E2,7.009E3,1.1E1,3E0,1.3E1,1.2E1,1E2,3.8E1,1.49E2,6.369E3,3.2E1,4E0,1.1174E4,8.1123E4,2E1,4.1E1,7E1,4.1E1,5E0,3.6E1,3.33E2,3.4E1,1.47E2,3.76E2,4.7E1,2.07E2,8.9E1,6.92E3],"tree_param":{"num_deleted":"0","num_feature":"6","num_nodes":"57","size_leaf_vector":"1"}},{"base_weights":[-1.7055107E-5,1.8797961E-6,-1.6909117E-3,-3.9095128E-5,8.438846E-4,-5.1514315E-3,-9.499759E-4,5.86622E-4,-9.38137E-5,-9.2138805E-5,1.6714601E-3,-2.379134E-4,-7.826076E-3,1.2376094E-3,-1.7967501E-3,-8.279937E-4,1.4679461E-3,-2.3110055E-4,2.4199199E-4,4.200076E-4,-1.214469E-3,1.9029063E-3,-2.5044351E-3,-0E0,-7.4716716E-4,-1.2376031E-3,-4.8362883E-3,-0E0,2.3353451E-3,-0E0,-2.8180631E-3,4.2095958E-6,-1.7962161E-4,9.8073404E-5,-1.4253624E-4,-2.448783E-6,-2.8996601E-5,-7.0997856E-5,1.8108487E-5,1.6059288E-4,8.313181E-6,-7.851862E-5,9.150613E-6,7.202543E-5,2.220924E-4,-3.295113E-4,8.8166744E-5,-0E0,-6.892516E-5,-2.9461464E-4,-0E0,-5.8838745E-5,1.7217496E-4,2.2919713E-4,-0E0,3.0080124E-5,-1.5269312E-4,-3.4504393E-4,-7.429744E-5],"categories":[],"categories_nodes":[],"categories_segments":[],"categories_sizes":[],"default_left":[0,0,0,0,0,0,0,0,0,0,0,0,0,0,0,0,0,0,0,0,0,0,0,0,0,0,0,0,0,0,0,0,0,0,0,0,0,0,0,0,0,0,0,0,0,0,0,0,0,0,0,0,0,0,0,0,0,0,0],"id":26,"left_children":[1,3,5,7,9,11,13,15,17,19,21,23,25,27,29,31,33,35,37,39,41,43,45,-1,47,-1,49,51,53,55,57,-1,-1,-1,-1,-1,-1,-1,-1,-1,-1,-1,-1,-1,-1,-1,-1,-1,-1,-1,-1,-1,-1,-1,-1,-1,-1,-1,-1],"loss_changes":[3.568882E-3,3.7381786E-3,2.6130704E-3,3.4082995E-3,4.056799E-3,1.7938376E-3,2.025377E-3,1.0006675E-2,4.2869328E-3,1.4054391E-3,2.5812117E-3,2.9857409E-5,2.741044E-3,5.1733555E-4,1.415144E-3,7.961559E-3,1.0481813E-2,4.1448586E-3,5.2434867E-3,7.405702E-4,5.2896E-4,2.46716E-3,2.604213E-3,0E0,4.5199333E-5,0E0,2.0612567E-4,2.3905438E-4,9.694293E-4,5.919178E-4,1.8867683E-3,0E0,0E0,0E0,0E0,0E0,0E0,0E0,0E0,0E0,0E0,0E0,0E0,0E0,0E0,0E0,0E0,0E0,0E0,0E0,0E0,0E0,0E0,0E0,0E0,0E0,0E0,0E0,0E0],"parents":[2147483647,0,0,1,1,2,2,3,3,4,4,5,5,6,6,7,7,8,8,9,9,10,10,11,11,12,12,13,13,14,14,15,15,16,16,17,17,18,18,19,19,20,20,21,21,22,22,24,24,26,26,27,27,28,28,29,29,30,30],"right_children":[2,4,6,8,10,12,14,16,18,20,22,24,26,28,30,32,34,36,38,40,42,44,46,-1,48,-1,50,52,54,56,58,-1,-1,-1,-1,-1,-1,-1,-1,-1,-1,-1,-1,-1,-1,-1,-1,-1,-1,-1,-1,-1,-1,-1,-1,-1,-1,-1,-1],"split_conditions":[1.1955665E0,1.1355149E0,1.0566492E0,9.086705E-1,1.2641167E-2,1.4489771E-2,1.2029384E0,9.37012E-1,1.0151324E0,1.0394752E0,5.8740746E-2,1.0358921E0,1.0352632E0,7.147036E-1,1.0788815E0,9.237283E-1,1.0155807E0,9.992141E-1,9.68767E-1,9.9680704E-1,1.1899679E0,1.0827756E0,1.1698291E0,-0E0,9.65921E-3,-1.2376031E-3,1.2029384E0,1.1194458E0,1.0873066E0,1.2799299E0,1.0873066E0,4.2095958E-6,-1.7962161E-4,9.8073404E-5,-1.4253624E-4,-2.448783E-6,-2.8996601E-5,-7.0997856E-5,1.8108487E-5,1.6059288E-4,8.313181E-6,-7.851862E-5,9.150613E-6,7.202543E-5,2.220924E-4,-3.295113E-4,8.8166744E-5,-0E0,-6.892516E-5,-2.9461464E-4,-0E0,-5.8838745E-5,1.7217496E-4,2.2919713E-4,-0E0,3.0080124E-5,-1.5269312E-4,-3.4504393E-4,-7.429744E-5],"split_indices":[1,1,0,1,4,4,1,0,0,0,4,0,0,5,0,0,0,0,1,0,1,0,1,0,4,0,1,0,0,5,0,0,0,0,0,0,0,0,0,0,0,0,0,0,0,0,0,0,0,0,0,0,0,0,0,0,0,0,0],"split_type":[0,0,0,0,0,0,0,0,0,0,0,0,0,0,0,0,0,0,0,0,0,0,0,0,0,0,0,0,0,0,0,0,0,0,0,0,0,0,0,0,0,0,0,0,0,0,0,0,0,0,0,0,0,0,0,0,0,0,0],"sum_hessian":[1.07273E5,1.06015E5,1.258E3,1.00983E5,5.032E3,1.97E2,1.061E3,7.973E3,9.301E4,2.305E3,2.727E3,8.3E1,1.14E2,2.63E2,7.98E2,3.017E3,4.956E3,6.6231E4,2.6779E4,1.522E3,7.83E2,2.607E3,1.2E2,2.2E1,6.1E1,1.1E1,1.03E2,9.5E1,1.68E2,2.96E2,5.02E2,2.242E3,7.75E2,4.469E3,4.87E2,4.3702E4,2.2529E4,1.749E3,2.503E4,9.3E1,1.429E3,6.81E2,1.02E2,2.24E3,3.67E2,7.3E1,4.7E1,2E1,4.1E1,7.5E1,2.8E1,8.6E1,9E0,8.9E1,7.9E1,2.43E2,5.3E1,1.04E2,3.98E2],"tree_param":{"num_deleted":"0","num_feature":"6","num_nodes":"59","size_leaf_vector":"1"}},{"base_weights":[-2.589522E-6,1.9160846E-3,-2.6713775E-5,5.464426E-4,1.382199E-2,-5.583364E-3,-1.1101903E-5,1.1178131E-2,-3.6101067E-4,1.5209009E-3,7.2083184E-3,-1.2841629E-2,-1.4312257E-3,1.04862675E-2,-1.8977642E-5,2.3759685E-2,-0E0,5.305338E-4,-6.8451758E-3,-6.53864E-3,1.2294689E-2,-0E0,-1.7906237E-2,8.805614E-3,-7.3319376E-3,2.5241906E-2,-0E0,3.6895634E-3,-3.1435127E-5,1.4851419E-3,-0E0,-1.72224E-5,1.0918655E-4,-3.0995947E-5,1.5085153E-4,-7.718213E-4,-0E0,-0E0,-3.8729885E-4,-0E0,7.9079455E-4,-1.3190175E-4,-0E0,-1.8349044E-4,-1.0766404E-3,7.6944823E-4,-0E0,-8.6269336E-4,-0E0,2.5269447E-4,1.8114463E-3,-2.3364511E-4,1.1351859E-5,-3.0826428E-4,2.857848E-4,-3.914481E-5,1.3509335E-6],"categories":[],"categories_nodes":[],"categories_segments":[],"categories_sizes":[],"default_left":[0,0,0,0,0,0,0,0,0,0,0,0,0,0,0,0,0,0,0,0,0,0,0,0,0,0,0,0,0,0,0,0,0,0,0,0,0,0,0,0,0,0,0,0,0,0,0,0,0,0,0,0,0,0,0,0,0],"id":27,"left_children":[1,3,5,7,9,11,13,15,17,-1,19,21,23,25,27,29,31,33,35,37,39,41,43,45,47,49,51,53,55,-1,-1,-1,-1,-1,-1,-1,-1,-1,-1,-1,-1,-1,-1,-1,-1,-1,-1,-1,-1,-1,-1,-1,-1,-1,-1,-1,-1],"loss_changes":[4.7928924E-3,1.9509878E-2,8.6658895E-3,1.2286798E-2,9.73819E-3,6.9927834E-3,7.722428E-3,1.2908458E-2,6.774435E-3,0E0,7.2985967E-3,5.504776E-3,1.1273268E-2,1.3328751E-2,4.531269E-3,6.357787E-3,1.3231374E-4,2.8761912E-3,7.166815E-3,1.8217287E-4,1.9205958E-3,4.1755364E-5,7.566307E-4,3.1669396E-3,7.813677E-3,3.008224E-3,4.8126865E-4,6.5395306E-3,4.7172434E-3,0E0,0E0,0E0,0E0,0E0,0E0,0E0,0E0,0E0,0E0,0E0,0E0,0E0,0E0,0E0,0E0,0E0,0E0,0E0,0E0,0E0,0E0,0E0,0E0,0E0,0E0,0E0,0E0],"parents":[2147483647,0,0,1,1,2,2,3,3,4,4,5,5,6,6,7,7,8,8,10,10,11,11,12,12,13,13,14,14,15,15,16,16,17,17,18,18,19,19,20,20,21,21,22,22,23,23,24,24,25,25,26,26,27,27,28,28],"right_children":[2,4,6,8,10,12,14,16,18,-1,20,22,24,26,28,30,32,34,36,38,40,42,44,46,48,50,52,54,56,-1,-1,-1,-1,-1,-1,-1,-1,-1,-1,-1,-1,-1,-1,-1,-1,-1,-1,-1,-1,-1,-1,-1,-1,-1,-1,-1,-1],"split_conditions":[8.25762E-1,7.726589E-1,8.899711E-1,2.4693678E1,8.026698E-1,7.726589E-1,6.910923E-1,8.6549693E-1,6.556117E1,1.5209009E-3,3.0979431E1,7.3890096E-1,8.431346E-1,9.237283E-1,9.0547246E-1,7.5522476E-1,6.910923E-1,9.4354886E-1,9.3439966E-1,1.9014847E1,8.031428E-1,3.6868702E1,3.302546E1,8.4123886E-1,8.6549693E-1,3.2759594E1,9.37012E-1,7.94321E-1,9.5704097E-1,1.4851419E-3,-0E0,-1.72224E-5,1.0918655E-4,-3.0995947E-5,1.5085153E-4,-7.718213E-4,-0E0,-0E0,-3.8729885E-4,-0E0,7.9079455E-4,-1.3190175E-4,-0E0,-1.8349044E-4,-1.0766404E-3,7.6944823E-4,-0E0,-8.6269336E-4,-0E0,2.5269447E-4,1.8114463E-3,-2.3364511E-4,1.1351859E-5,-3.0826428E-4,2.857848E-4,-3.914481E-5,1.3509335E-6],"split_indices":[1,2,0,3,1,2,2,0,3,0,3,2,2,0,0,1,2,0,0,3,2,3,3,1,0,3,0,2,0,0,0,0,0,0,0,0,0,0,0,0,0,0,0,0,0,0,0,0,0,0,0,0,0,0,0,0,0],"split_type":[0,0,0,0,0,0,0,0,0,0,0,0,0,0,0,0,0,0,0,0,0,0,0,0,0,0,0,0,0,0,0,0,0,0,0,0,0,0,0,0,0,0,0,0,0,0,0,0,0,0,0,0,0,0,0,0,0],"sum_hessian":[1.07628E5,1.284E3,1.06344E5,1.16E3,1.24E2,2.79E2,1.06065E5,9.9E1,1.061E3,3E1,9.4E1,9.2E1,1.87E2,6.9E1,1.05996E5,4.4E1,5.5E1,9.2E2,1.41E2,2E1,7.4E1,2.8E1,6.4E1,6.2E1,1.25E2,3.2E1,3.7E1,3.27E2,1.05669E5,3.5E1,9E0,2.9E1,2.6E1,6.02E2,3.18E2,5.7E1,8.4E1,3E0,1.7E1,2.2E1,5.2E1,5E0,2.3E1,1.9E1,4.5E1,3.3E1,2.9E1,4.8E1,7.7E1,1.5E1,1.7E1,2.1E1,1.6E1,4.7E1,2.8E2,7.749E3,9.792E4],"tree_param":{"num_deleted":"0","num_feature":"6","num_nodes":"57","size_leaf_vector":"1"}},{"base_weights":[1.4717141E-6,1.26464465E-5,-2.5352538E-3,-7.199967E-5,3.1750725E-4,1.0283845E-4,-4.216878E-3,5.6140043E-4,-1.2443883E-4,-1.2885203E-4,5.7544035E-4,1.6863171E-3,-3.4242289E-3,-7.040538E-3,-2.3597681E-3,7.700822E-4,-6.182146E-3,-7.244357E-4,-5.86649E-5,-4.8787845E-4,1.6282666E-3,1.7639601E-3,3.0616883E-4,-0E0,3.1461066E-3,-0E0,-6.488908E-3,-3.8566545E-4,-0E0,-8.055157E-4,-3.233702E-4,-1.6687432E-5,8.15959E-5,-3.5803407E-4,-0E0,3.3933844E-5,-6.1442894E-5,1.9833455E-5,-7.4525533E-6,3.60042E-5,-4.6323636E-5,-1.6499049E-5,1.5707378E-4,5.6370383E-5,1.5455234E-4,2.1439E-5,-3.1004856E-5,2.0741749E-5,-2.2821694E-5,2.1339348E-4,-0E0,-4.633369E-4,-0E0,-0E0,-9.2058406E-5],"categories":[],"categories_nodes":[],"categories_segments":[],"categories_sizes":[],"default_left":[0,0,0,0,0,0,0,0,0,0,0,0,0,0,0,0,0,0,0,0,0,0,0,0,0,0,0,0,0,0,0,0,0,0,0,0,0,0,0,0,0,0,0,0,0,0,0,0,0,0,0,0,0,0,0],"id":28,"left_children":[1,3,5,7,9,11,13,15,17,19,21,23,25,27,29,31,33,35,37,39,41,43,45,47,49,-1,51,-1,-1,53,-1,-1,-1,-1,-1,-1,-1,-1,-1,-1,-1,-1,-1,-1,-1,-1,-1,-1,-1,-1,-1,-1,-1,-1,-1],"loss_changes":[2.7935675E-3,2.786126E-3,2.3283106E-3,2.7299228E-3,2.7518042E-3,6.473984E-4,5.4833945E-4,8.243418E-3,2.970845E-3,5.2300724E-3,4.607046E-3,2.8938765E-4,4.530478E-4,5.562175E-4,5.188219E-4,5.902026E-3,5.6667486E-4,5.3520277E-3,2.8472787E-3,3.772858E-3,4.401087E-3,1.8639704E-3,1.3820268E-3,1.1059292E-5,3.1369377E-4,0E0,4.443074E-4,0E0,0E0,1.4638685E-4,0E0,0E0,0E0,0E0,0E0,0E0,0E0,0E0,0E0,0E0,0E0,0E0,0E0,0E0,0E0,0E0,0E0,0E0,0E0,0E0,0E0,0E0,0E0,0E0,0E0],"parents":[2147483647,0,0,1,1,2,2,3,3,4,4,5,5,6,6,7,7,8,8,9,9,10,10,11,11,12,12,13,13,14,14,15,15,16,16,17,17,18,18,19,19,20,20,21,21,22,22,23,23,24,24,26,26,29,29],"right_children":[2,4,6,8,10,12,14,16,18,20,22,24,26,28,30,32,34,36,38,40,42,44,46,48,50,-1,52,-1,-1,54,-1,-1,-1,-1,-1,-1,-1,-1,-1,-1,-1,-1,-1,-1,-1,-1,-1,-1,-1,-1,-1,-1,-1,-1,-1],"split_conditions":[1.2131557E0,1.0561706E0,1.0788815E0,8.998487E-1,1.0209618E0,1.1956558E0,2.177195E-2,1.0285631E0,9.624163E-1,1.1292665E0,1.069867E0,2.0322382E-2,1.4376469E-2,2.0002484E0,5.8740746E-2,9.37012E-1,1.494817E0,9.395641E-1,9.5254993E-1,9.974581E-1,1.0429898E-2,1.0566492E0,3.21905E-2,1.0797416E-2,4.9943242E-2,-0E0,3.6734708E-2,-3.8566545E-4,-0E0,9.794247E-1,-3.233702E-4,-1.6687432E-5,8.15959E-5,-3.5803407E-4,-0E0,3.3933844E-5,-6.1442894E-5,1.9833455E-5,-7.4525533E-6,3.60042E-5,-4.6323636E-5,-1.6499049E-5,1.5707378E-4,5.6370383E-5,1.5455234E-4,2.1439E-5,-3.1004856E-5,2.0741749E-5,-2.2821694E-5,2.1339348E-4,-0E0,-4.633369E-4,-0E0,-0E0,-9.2058406E-5],"split_indices":[1,1,0,1,0,5,4,0,0,1,1,4,4,5,4,0,5,0,1,0,4,0,4,4,4,0,4,0,0,5,0,0,0,0,0,0,0,0,0,0,0,0,0,0,0,0,0,0,0,0,0,0,0,0,0],"split_type":[0,0,0,0,0,0,0,0,0,0,0,0,0,0,0,0,0,0,0,0,0,0,0,0,0,0,0,0,0,0,0,0,0,0,0,0,0,0,0,0,0,0,0,0,0,0,0,0,0,0,0,0,0,0,0],"sum_hessian":[1.07445E5,1.07014E5,4.31E2,8.3502E4,2.3512E4,1.45E2,2.86E2,6.238E3,7.7264E4,8.469E3,1.5043E4,1.2E2,2.5E1,9.1E1,1.95E2,6.066E3,1.72E2,7.482E3,6.9782E4,7.08E3,1.389E3,2.709E3,1.2334E4,5.7E1,6.3E1,8E0,1.7E1,8.5E1,6E0,1.6E2,3.5E1,2.609E3,3.457E3,1.39E2,3.3E1,1.926E3,5.556E3,1.1374E4,5.8408E4,1.825E3,5.255E3,5.77E2,8.12E2,1.883E3,8.26E2,1.0988E4,1.346E3,3.3E1,2.4E1,5.1E1,1.2E1,1.3E1,4E0,8.7E1,7.3E1],"tree_param":{"num_deleted":"0","num_feature":"6","num_nodes":"55","size_leaf_vector":"1"}},{"base_weights":[2.6755059E-5,-4.4355664E-4,7.182515E-5,-6.3872937E-4,4.3524713E-3,6.241509E-3,6.565308E-5,9.142033E-4,-9.1048906E-4,1.2507527E-2,2.5926596E-3,9.678753E-3,-1.5878817E-3,1.0967543E-4,-5.165016E-4,-5.838467E-4,3.184295E-3,-2.6911763E-3,-6.1443035E-4,1.4144046E-2,-0E0,7.367938E-3,-0E0,6.3326355E-4,-0E0,-0E0,-2.7532186E-4,6.747741E-4,4.0087405E-5,-8.752101E-4,5.104809E-4,-2.062997E-4,1.1775811E-4,6.0886814E-4,-0E0,-2.2328238E-4,5.753105E-5,1.406622E-4,-5.3172873E-5,-0E0,7.7265926E-4,-0E0,4.2555612E-4,-1.5607788E-4,8.9864385E-5,7.049081E-5,-0E0,-5.705889E-6,8.916523E-6,-3.0949184E-5,-1.4212256E-4,-2.6173066E-5,1.1277554E-4],"categories":[],"categories_nodes":[],"categories_segments":[],"categories_sizes":[],"default_left":[0,0,0,0,0,0,0,0,0,0,0,0,0,0,0,0,0,0,0,0,0,0,0,0,0,0,0,0,0,0,0,0,0,0,0,0,0,0,0,0,0,0,0,0,0,0,0,0,0,0,0,0,0],"id":29,"left_children":[1,3,5,7,9,11,13,15,17,19,21,23,25,27,29,31,33,35,37,39,-1,41,43,-1,-1,-1,-1,45,47,49,51,-1,-1,-1,-1,-1,-1,-1,-1,-1,-1,-1,-1,-1,-1,-1,-1,-1,-1,-1,-1,-1,-1],"loss_changes":[2.2408145E-3,8.246845E-3,3.1107E-3,3.7417086E-3,3.3370173E-3,3.0312014E-3,2.4755641E-3,4.567204E-3,3.6744154E-3,9.804657E-4,3.0925774E-3,1.837689E-3,1.6938269E-4,3.524283E-3,2.5209554E-3,7.859267E-3,1.4496556E-2,7.3923995E-3,9.933867E-3,5.108584E-4,0E0,8.1892917E-4,1.0303673E-3,0E0,0E0,0E0,0E0,4.812756E-3,1.7453984E-3,2.2076773E-3,3.1947168E-3,0E0,0E0,0E0,0E0,0E0,0E0,0E0,0E0,0E0,0E0,0E0,0E0,0E0,0E0,0E0,0E0,0E0,0E0,0E0,0E0,0E0,0E0],"parents":[2147483647,0,0,1,1,2,2,3,3,4,4,5,5,6,6,7,7,8,8,9,9,10,10,11,11,12,12,13,13,14,14,15,15,16,16,17,17,18,18,19,19,21,21,22,22,27,27,28,28,29,29,30,30],"right_children":[2,4,6,8,10,12,14,16,18,20,22,24,26,28,30,32,34,36,38,40,-1,42,44,-1,-1,-1,-1,46,48,50,52,-1,-1,-1,-1,-1,-1,-1,-1,-1,-1,-1,-1,-1,-1,-1,-1,-1,-1,-1,-1,-1,-1],"split_conditions":[9.5704097E-1,1.1337011E0,6.557827E-1,9.0547246E-1,9.3439966E-1,5.8740746E-2,3.2796063E-2,7.94321E-1,8.1645286E-1,4.4663355E-2,1.1752547E0,9.992141E-1,6.972809E-2,9.7709477E-1,1.0465736E0,4.6264533E-2,8.226794E-1,1.1378608E0,8.5824716E-1,6.239203E-1,-0E0,9.395641E-1,1.2331034E0,6.3326355E-4,-0E0,-0E0,-2.7532186E-4,9.565271E-1,1.0215303E0,1.1945125E0,1.1689745E0,-2.062997E-4,1.1775811E-4,6.0886814E-4,-0E0,-2.2328238E-4,5.753105E-5,1.406622E-4,-5.3172873E-5,-0E0,7.7265926E-4,-0E0,4.2555612E-4,-1.5607788E-4,8.9864385E-5,7.049081E-5,-0E0,-5.705889E-6,8.916523E-6,-3.0949184E-5,-1.4212256E-4,-2.6173066E-5,1.1277554E-4],"split_indices":[0,2,2,0,0,4,4,2,2,4,2,0,4,0,0,4,2,5,2,5,0,0,2,0,0,0,0,2,2,2,2,0,0,0,0,0,0,0,0,0,0,0,0,0,0,0,0,0,0,0,0,0,0],"split_type":[0,0,0,0,0,0,0,0,0,0,0,0,0,0,0,0,0,0,0,0,0,0,0,0,0,0,0,0,0,0,0,0,0,0,0,0,0,0,0,0,0,0,0,0,0,0,0,0,0,0,0,0,0],"sum_hessian":[1.07465E5,9.203E3,9.8262E4,8.864E3,3.39E2,8.1E1,9.8181E4,1.265E3,7.599E3,4.9E1,2.9E2,6.5E1,1.6E1,9.1439E4,6.742E3,7.36E2,5.29E2,1.034E3,6.565E3,4.3E1,6E0,9.2E1,1.98E2,4.9E1,1.6E1,1E1,6E0,9.867E3,8.1572E4,5.069E3,1.673E3,3.49E2,3.87E2,1.33E2,3.96E2,7.25E2,3.09E2,7.34E2,5.831E3,5E0,3.8E1,1.2E1,8E1,5.8E1,1.4E2,4.681E3,5.186E3,3.8218E4,4.3354E4,4.531E3,5.38E2,1.015E3,6.58E2],"tree_param":{"num_deleted":"0","num_feature":"6","num_nodes":"53","size_leaf_vector":"1"}},{"base_weights":[1.2611202E-5,-1.6829939E-6,1.2946702E-3,1.2423622E-3,-1.758086E-5,-2.3886221E-3,1.4921875E-3,-1.205426E-3,4.4800006E-3,-6.210932E-4,3.102106E-5,-1.3739066E-4,-0E0,3.2329732E-3,5.8931677E-4,-5.2204733E-3,8.548022E-4,1.11322375E-2,1.2358634E-3,-8.083588E-4,3.3517878E-3,-1.7068262E-3,4.835378E-5,2.1948155E-3,1.3477248E-2,-0E0,2.2898973E-3,-7.1482715E-4,-3.6420897E-5,6.7553345E-5,-3.2049016E-4,9.367978E-4,2.0862462E-4,-0E0,4.4057463E-4,-1.3875768E-4,-2.3999382E-5,6.511331E-4,